code,V1,V2,V3,V4,V5,V6,V7,V8,V9,V10,V11,V12,V13,V14,V15,V16,V17,V18,V19,V20
A010,-0.06998532132533916,-0.1438560009575436,0.0988600118937859,-0.2048426874234127,0.14053171993609667,-1.0278856697038248,0.8517033346718589,-0.0035344037849363297,0.04053676231800375,0.6696040563805887,0.4930988926329443,0.13762786859367337,1.1203172541879864,-0.8588544071876107,-0.4841470954575079,0.3549381364130009,-0.5774703989825851,-0.5025748099375348,0.13634475049076739,-0.4718329633396179
A028,0.012125798025554108,0.1719635006671431,0.15191222383799438,0.08353080776574602,0.6340685665087182,-0.9306807482512335,1.0853738706542393,1.350420773559465,-0.3095375238625201,-0.3456253676159289,0.05147280866776244,0.13486980410434335,0.3185246780869295,-0.3996401377659799,-0.28674525701331066,0.31113536332713726,-0.2380666534108138,-0.45801151562502074,-0.22498892756147168,-0.03680583671893568
A044,-0.28229584551690834,0.3964035797615107,0.4273866809459563,-0.37483413116347175,1.4492059928759775,-0.16729666424116277,0.5908411702068301,-0.28785692509580996,-0.23957914300651367,0.5803586783964699,-0.39636106930041554,0.2842028572776062,0.8539218176885608,-1.3834143097275475,0.2083385379788586,0.9144422237091399,-0.3527434239040334,-0.9334345622570973,0.07786906490678233,0.9896639299542012
A178,0.2635355742111879,-0.42372485824383443,-1.001010745513474,0.16090072458965005,0.748029733946745,-1.0146688150375318,0.9244450480131456,0.2723442514735712,0.052304487575133535,-0.07567002098477832,-0.3351682248625007,-0.6787897010117773,1.2390227975305266,-0.30356464083191353,-0.03522405583136948,0.3507065810451987,0.08879684384713998,0.22213445100851928,-0.3759107567969182,0.19505833239196552
A183,-0.0800661950157569,-0.3715088154525625,-0.7913740494966878,-0.3407110375996612,1.0941553315819963,-0.3363089241096374,0.15859727276946647,0.36447410410746267,-0.6558021801858869,-0.25968120366688324,0.45290674273434617,0.29556858292767063,0.7660523615666417,-0.4164715179170113,-0.4108184791289863,0.017973317904263944,-0.24620906074215937,0.9261290108699927,-0.7403646481722542,0.06042294175183553
A430,-0.6883616151027636,0.04073862247177254,-0.020044187071798336,-0.6628352074951922,0.9314655422690983,-0.2779075039757871,0.06706887560748764,-0.027008445226289313,-0.24636666912643096,-0.10746753708493972,-0.5055659263321748,-0.08025275248182151,1.6708095865851003,-0.24380137078706596,0.35592892918984576,-0.31030159359902487,-0.7794008460151373,0.3559312613742129,0.6161489350130114,0.35160045540641965
A6300,0.4660807580037299,0.08336568163925398,-0.23170677090950564,0.7724742814077319,0.7794131315584928,-0.5163724513935058,1.1339253216204819,0.3325197633934967,-0.5835604568206566,0.38338098325585224,0.23820812674227065,-0.5182831056334185,0.040691496051690874,-0.10920803474184179,-1.133299974418857,-0.13990867129018822,0.5639377305652746,0.27735697862006564,1.0988806888398757,1.1974175473673405
A6309,0.2878781560284461,0.47106681235806747,0.13516094132991996,0.4278591627664653,0.41632086780690153,-1.2984390275424205,0.09577882195732622,0.24238704967895403,-0.5481292025031437,-0.0683789644909675,-0.7257106572935436,-0.4657279892615814,-0.010102507090382726,-0.5265463416172257,-0.047994281836400796,0.9625241815729924,-0.4513976077932197,-0.048150763341048425,0.4857390890037614,0.4000646633373478
A858,-0.08887997334068327,-0.6560548931846738,0.46737234436627073,0.048522321386062134,0.782776426080353,-0.7153200781340404,1.5986692868309578,0.4381848763854121,0.15370589484243147,1.3243731036969384,0.2135529158918415,0.2641345862402926,-0.7964718658185446,0.6303902164350298,-0.7586876650808616,0.11086286866527781,-0.13685612748624504,-0.515456069893204,0.35043941484750735,-0.7035376176722801
B003,-0.22892402921507873,-0.7580378792203515,0.05190579625699934,-0.4724713011431373,0.5114344434033062,-0.5990043683122317,0.860343484400468,0.3936856651200973,-0.6596159243543145,-0.1318773884134225,0.23409086983305166,1.0003754796311581,0.07321774952496905,0.06173971441506418,-0.5095585261703082,0.5618731682688202,-0.42665894493966194,-0.028622716382759955,-0.5263516093500489,-0.19361140319421621
B011,0.16860861163835214,-0.3980108866234551,-0.24491314677870682,0.3724751100582931,1.3002955282520647,-0.2690189404131105,1.0644746256738429,0.0048965521271887025,-0.07818060803728535,0.3388761663938979,0.4951847762119487,-0.5821047563822639,-0.10539388292865867,0.4342428865942488,-0.4081771028917597,0.1985649075722156,-0.32208544644173176,-0.2903492366390389,-0.05298944972262483,-0.34225501926734236
B059,0.15619399741078105,0.30096823072723644,0.5250751890108076,0.3248936220052335,0.7821596894483405,-0.08472665524271139,1.5239272809319808,0.41721218675918736,0.020000250710633494,0.6615246007901331,0.87858880647211,0.23702178692530393,0.8820195422474534,0.06364093145753552,0.11817117070583127,-0.5225452003844262,-0.32466428158789096,-0.5407895828319548,1.233687073448903,0.9002227574280062
B340,-0.5477873415923332,0.30598944415113627,1.0831304640847264,-1.0318444684793366,0.7594188388647778,0.3962284874350003,-0.13717633776941776,0.001765716142297702,0.4824877162780481,0.13696731031094567,0.4487114557736047,-0.3360673349373073,0.4465524624975004,-0.5917011792438646,0.15473960533568226,0.812524487773596,-0.8637944577752996,-0.5066678690410182,0.9719579038386145,0.927732450975037
B344,0.9602897501012055,0.4400425871628676,0.40076298093614626,-1.2099483709412429,1.218900700225911,-0.45640455631956023,-0.17915222054190028,-0.5974300283335789,-0.0962704877600774,0.5969649774980792,0.15060889041267794,-1.2964900733197826,0.5697646982186746,0.1536542346214306,0.8210587416298218,0.38671832059573985,-0.009038477303129667,0.3648760255850882,0.14464283144349466,0.07184433498707071
B509,0.6419626584045383,-0.8282747979181966,0.768300708903473,-0.5313472166424704,0.6055164995612843,-0.5173150311405094,1.1693127797059508,0.2655810917278348,-0.05464727378295489,1.2768368958618117,0.7156894758266955,0.42540372504704455,-0.513002709295497,0.1416186593695669,-1.2899592660982133,1.3007219805186137,0.4166076140888533,-0.21654065196179673,0.9652360101507089,-0.21028238084180084
B960,0.1465339010131998,-0.24726424483727583,0.37314801153544314,0.38524066580905025,0.6975213681449193,-0.8750100545977351,0.012844805386048319,-0.041907667591189385,0.06667540018245174,0.3224495012699343,0.21124528668419654,0.3680040722481424,0.3545513239873683,-0.05017882790914449,-0.42410421748489424,-0.09413088372579663,-0.45053862450156024,-0.05714891566265476,0.3016343574615049,0.5266511541048067
C412,-0.20644663793436874,-1.0146071054732542,-0.5835435051849794,-0.8544583965947724,1.7267457413524916,-0.6590967160362317,0.15304261555205367,-0.5952128620057935,-0.2993853716103378,0.2021969155724942,-0.7616998953997361,-0.05096304676673641,-0.4703640883163864,0.6396297986647627,0.09511331450323823,0.7271781429708851,0.7129515163796765,-0.9645609874212453,-0.6747152056382604,0.025631837321886453
C461,-0.7610036193796836,-0.30259091445294456,0.552523060142217,-0.9371307571392002,0.8536560600850359,-0.2823681808872894,0.24174273815888414,0.39599145700095717,0.5309174665034876,-0.46207697641640283,-1.6433820259541185,-0.16362503886199115,0.8690429255497407,-0.5726110957497504,-0.19744031757274394,-0.2981829534832736,0.40441852109852167,-1.4936104436012807,0.6952968164424345,-0.5268591793882151
C469,-1.4622705995329506,-1.4127727760090623,0.09494089888703922,-1.070533294626059,0.7448958756294999,0.37563842304263784,0.3485182287948645,-0.1103408159667334,-0.38431837722750795,-1.872999306439168,0.6485495772535154,-0.3918835326551868,0.4498626956529009,-0.3511406183494226,-0.15856969239898655,0.1694045244690833,-0.16275151776132923,-0.41072270229904756,0.5280640295365296,0.4637187194576728
C729,0.6586620426873347,-1.0105304991842918,0.5585230013718618,0.16421864644773082,-0.720171951129464,-1.03741154675079,-0.21912352097949472,-0.22406845273353354,0.23577286625641028,-0.23475501861395168,0.34723198484112394,0.40599002264613593,0.5976568592124065,0.5027325193057645,-0.24467670997913168,-0.31416700552745624,-0.710204831534767,-0.3326734727893319,0.8803315255125982,0.7073596984894328
C832,0.8650419814400042,-0.8139517461158714,-0.33071368832827086,-0.06801612115851868,0.8681280135431215,-0.9082079368676519,0.4590825151705249,0.48274454382107185,-0.24500126394913824,0.8728081726691186,1.3510217204827235,0.42439220000385713,0.6517695273866002,-0.31244203353308764,0.04444729717829919,-0.6206896178292639,0.20222438896609177,0.2173159611349103,1.0718907739308026,-0.010551305375086861
C839,-1.8499044230168031,-1.133020891542953,1.3524431406037798,0.4201932353483588,0.4744345887528896,-0.5625409210351336,0.10458916796203482,0.4236349920332827,0.296227092290772,-0.3726142067770372,-0.07338961645599773,1.2573633932621342,1.1905600163867165,1.3526609280724045,1.664564174140786,-0.29006820255905486,-1.071363716436421,-1.421106195196191,0.1609805586665174,0.021508433025666907
C840,-0.38132115254123633,0.04361026139626101,0.0586222448572683,-0.9530004565359351,0.28449110084049456,-0.8895196769217862,0.29915723692983076,0.9280312499958896,-0.3497652042100777,-1.1073955343672888,-0.08137694703422335,0.8849817114061758,1.5695384182636398,0.6997394752760822,-1.118345659249727,-0.3562836898545943,0.8903988886566662,-1.0616458587847313,-0.055677338870203284,0.17581060818377145
C9030,-0.5279976692267834,-0.27715308801802613,0.7108546901395651,0.34439664376708146,0.2571219705323708,-0.7991910527731247,0.3591590078833599,-0.08995348301612274,0.49682273901902574,0.49585497805194184,0.6488755998467144,-0.2925680034020829,1.222894677467378,-0.0524621801599941,-0.8859642582620588,-1.6853919920117875,-0.3288957925082713,-0.7342220948948992,-0.5256707188441775,-0.5748085772586013
D010,-0.19205249050131004,-0.1538199230443745,-0.8015916777269916,-0.47931084718612504,0.7755541037933444,-1.0130069091829714,0.7016005215078687,-0.21346319814529716,0.11587662298087639,0.24818487901225342,-0.5593619762830597,-1.1647145235003442,0.45464796172495564,-0.14595495778499545,-0.5606554773649872,0.12671988775683793,0.4401880230792555,0.2098152763037019,0.3396409002521542,-0.30196146305625154
D040,0.22845831118717452,0.395474449214321,-0.6332382537171233,0.19211847111483282,1.4647624046463688,-1.341694300229166,-0.04608929746631793,0.9159785103384916,-0.18924425138140416,0.240499941979681,0.23155197636538993,0.2663909644151126,0.8172906776149503,0.009117999901679538,0.049252845227012905,-0.7164673704504596,-0.27286298631164524,0.8151133141573277,0.4908256593734316,0.38926581333838434
D100,0.055641933433060786,-0.39740313332126875,0.1313825064242785,-0.026093281933568135,1.3165364205263246,-0.8821025719665501,0.14948482721244744,0.21234968436969645,-0.3068042002929757,0.1402275861854907,-0.7664612839267448,1.001889573064552,0.413740426157996,-0.16213956722328488,-0.5112854647169218,0.6176792503149442,0.018426594207089843,-0.5258993928536498,0.7809651608438745,0.19973609877711423
D133,0.3141277157837275,1.2355166446433146,-0.9126046383542515,-0.025056160849107445,0.6711355051998139,-0.08348398226692585,1.4685668947894173,-0.18690288973571234,-1.292774495279939,0.775430995986581,-0.508466396757181,-1.1437995263977332,1.0639152558795462,-0.514795121822627,-0.3776663545166013,0.0532515333430478,0.00574702586500285,0.24483131136273656,-0.20250233016656627,-0.4047868600324246
D215,1.6557870719784846,-0.3767806202099668,1.1872592581212231,0.21729905014888073,0.7352291718651894,0.6236629896844146,0.5347746569204352,0.4225809686255774,-0.09722796224469865,0.8084625994687431,-0.672463572279588,0.6417686993603454,-0.3729962308889485,0.07082120116149822,-0.9539858945606768,0.026541471665293803,-0.0025467020372713783,-0.21550474369015288,0.8130796959182244,0.57123847805613015
D219,-0.25025867030625315,-0.7746719829785793,0.08850252621840589,0.3916267867409141,1.2086275171282455,-0.6635432426037129,0.4472804011288992,0.10841438414468534,-0.6731230731950337,-0.27983802937106783,-1.0433284188829521,-0.2075551779440939,0.3121380721883865,0.8704225758447354,-0.7948392500307426,0.33225066093677574,-0.07044170258076227,0.2516067464902533,0.547135532632907,-0.02961037432288997
D229,0.9689031684129036,0.3518372684063451,-0.04226291351064043,-1.508844384389698,0.8699673472865923,-0.8810340005645685,0.9258592565271504,-0.3956413229892758,-0.9806431161574228,0.18813487932465905,-0.13384030944513753,0.1927063087232056,0.006224106887304626,-0.9158840769429213,-0.5940755637467525,-0.11554504920713313,-0.3936598773222355,-0.8362369224883959,0.39879787637281694,0.07399406842778669
D294,-0.20450951170504328,-0.599933700751364,-0.372561047124203,0.43623928990217864,1.6693889550407754,-0.36180924361830574,0.09691444829873604,-0.1842925376433467,-0.9944417147350428,-0.18565041209964234,0.1789118957071357,-0.2766506333287262,-0.08058199186593587,-0.0555796553983846,-0.8904410724023699,0.02630984987683119,-0.032550171479214476,-0.34851219255541527,-0.14151020827801966,0.16351091079457267
D385,0.09671321924120715,0.24651216451346603,-0.36262335991844435,-0.5369110787919966,0.9469021898535701,-0.943752487674158,0.3132890627160181,-0.7797308969938761,-0.051802625404432645,0.9108637577946247,-0.637217913961497,0.2802537786097844,0.2527932548778797,-0.49820811570707974,-0.10069007273263764,-0.41830944864940245,0.11558616820675291,2.01355510374146e-4,0.9878412648853001,1.4444484970675
D391,0.5652792818849208,-0.17788334068326467,0.20257575785087809,-0.615657208306907,1.3487932479602371,0.4008503604357194,1.0091472802246753,-0.5375783133266391,-0.4741478120921533,0.9861552170740551,0.35929401985699266,-0.023555309137548747,1.007882726321603,-0.5389969272646433,0.20772649971437585,0.22405559278840728,0.7745389369630744,0.40806315691703665,0.762741519781072,0.868596820332501
D443,0.304418665267219,0.883454155784103,-0.9163453641187673,-0.3565777288502375,0.11200159004228064,-0.6415459058641696,0.5214044129894064,0.16796074955116636,-0.972206091750845,0.19979794687178443,0.19562738434411903,0.046858519120674236,1.3083139691521264,0.010862940183871198,-0.6658151968367216,0.37801680880781635,0.20070226499176896,1.2416259803004004,0.7169386488481286,0.47933547332701043
D446,-0.16328883048617343,1.01565049668429,0.17061033843581297,-0.5034533090733925,0.9007364517739966,-0.828024895074944,-0.271177571442454,0.07491582387730966,-1.2327905415167755,0.9303565747952444,0.16559056266054517,0.27024436156603293,-0.17302616587667333,-1.026716989353904,0.1183697844149781,-0.20534059002442426,-0.419102912343734,-0.008249724307465678,0.24194723843494148,0.4103199432516668
D593,-0.4889735856951257,-1.1541695961891294,0.5716317324376952,-0.3495690726769658,1.3750719097545812,-0.41539053695013806,-0.0227948978859212,-0.3625002241763778,-0.8842902478272237,-0.16766266987337786,0.3507910263305175,-0.037154568977309385,0.30770626206554463,0.14839360448054706,-1.3083140995003557,-1.1100267267955632,0.5793646445831547,-0.7237913144981567,0.8841035294049919,0.3912924203477249
D7589,0.33569008401306605,-0.9986007081562497,0.307361127729831,-0.4745272852111317,0.847761817787591,0.36331678327822736,1.6022792449185324,0.9015698406985122,-0.7494510840059374,-0.28289152747207713,0.2894958131221527,0.5153004552439093,-0.21279443554495253,-0.4468190479848561,-0.1982948894244771,-0.04490374729601697,-0.4348322457175833,0.8708877814315618,0.4185186892532667,0.7513024352386812
D890,0.22533284595778344,0.04899131710972143,1.3224641620080475,-1.2044644538403078,0.9140296025681652,0.07610597183545227,0.057753780547705455,-1.2119627307600667,0.07708071013011464,0.5608191524110321,-0.32026642209971734,-0.64690114303801,0.7824288665316211,-0.3831348779054756,-0.08000666671885043,-0.5563163774075225,-0.4774384944480263,-0.7093169983080263,0.7859156955780129,0.2844225829338816
E061,-0.8353814633958507,-0.22227819276453886,-0.011378381472003207,-0.5279806844691081,1.2488400413484888,-0.3553446672153511,-0.7462125570145588,-0.11120456907408871,-0.28131389450057753,0.6956535137177824,-0.16011203425809487,0.9585289214117432,0.6862217514991177,-0.20752306432660345,-0.11786390686030802,0.7874537935409465,1.3286182564241893,-0.16368688017937993,0.5917292508442745,0.3611746634976662
E069,0.1453233660302155,-0.19637239086828318,0.18076104413498514,-0.28189142090520664,0.4832329595895798,-0.5702977510469649,0.036860816207772304,0.6351625887300203,-1.2214605685919153,-0.13124184377911924,-0.16978290431268764,0.06844362029765771,0.520975400156269,-0.4742229928464646,-0.8495350060866333,0.2825844297159905,0.431188375496131,0.2858907177832786,-0.11572030804784385,0.7797275110183304
E0901,0.3620418996366499,-0.5352984053121845,1.000112341802038,0.20340184150943436,0.8081622807836075,-0.9855033615514055,0.40303613777927527,1.3831160136848955,-0.1892296427656808,0.6770501340247848,-0.317374419821724,0.14125000609555222,-0.4346495094476831,0.05476865573034545,-0.4235865254866873,0.4750711427646307,0.7390590558290804,0.652733963374639,0.8338076005647381,-0.4760646469129332
E1001,0.9173883915064155,-0.286931767199867,0.9564466866767316,0.1973451456420618,1.6315210095916866,-1.037143248636857,-0.11428520902727078,1.5918597571846516,-0.6792671672212458,-0.07762577864158127,1.537924056896916,0.02889110241638794,0.4627306427724709,0.8113268991782054,-0.03608753233068733,0.8675112562510571,-0.5281068635501701,-1.0868158617712285,1.0145731580198647,-0.013431772951188262
E1035,0.1692130306347229,1.0899961085633953,-0.18553601453358587,0.19134497649358734,0.6619459980481961,-1.0293963437911786,0.5564757452742446,0.1642690353931934,0.16498785749225542,1.1277408581867088,-0.10330517799380967,-0.8755729590391547,1.65378406437727,-0.3847921426249441,-0.09359904777916617,-1.092582174353013,0.9361419725174407,-0.5121219969271532,0.9908707249243249,-0.23105264238679996
E1115,0.3733584825207297,-0.015931205558791184,0.49003014682679424,-0.649926201912272,0.6111393264557515,0.08201881843224082,0.6611517118715946,0.07416931968765741,-0.7930622092209054,0.5194091326185422,0.6083129152148654,-0.04392426387157922,0.5083728271871562,0.35207547888326157,-0.4412035463917069,0.5712688713466642,0.14021090380588036,-0.20815752509426122,-0.18513496189027198,1.1128580227631295
E118,0.9583600819770084,0.2692525188843323,-0.6955257893340366,-0.03932140863370398,0.10925877414332769,-1.2782272734672486,0.933703018155991,0.28185186392672135,0.8905610524468771,2.1277408458429425,1.649396562581818,1.0363854317493375,-0.11373088107665115,-0.28394772548077674,0.4508489238924943,0.8337322880441309,1.30847341059392,-0.3126156356686901,-0.009715930737794004,0.25731053393116055
E1301,0.9338421594088093,-0.5021690040143296,0.7127978642673535,-0.07734903261560916,0.4785989994974138,-1.2133831210382682,0.35343526441990825,0.4071794099462305,-0.3363040838755712,0.5698783467140771,-0.43809366183159865,0.27292423768476376,0.3205952365908291,-0.48420270780780134,0.20057713555794304,0.3281944663078823,0.3908407069713137,0.09274943694715727,0.3570036159472255,-0.21332718738898357
E1439,1.4290738066603055,0.382046526522336,-0.36998756775489616,-0.7950658305801319,1.1918310096691005,-0.7730832176386975,0.8384460687739563,-0.3441630296302095,-0.09708565029531938,-0.4681855912521608,-1.0127071359897346,-0.8000568946817131,-0.22255759181287219,-0.39121532023880945,-1.2242610066079376,-0.7306963797422089,-0.025521870532479868,0.4235206955655705,-0.029422521272353393,0.8471085927208564
E1451,0.789764369541189,0.46108797010314506,-0.3592867976392756,-0.9239163921147963,1.5708358260390345,-0.5688546463640918,0.3224077213781527,-0.13301759415297348,-0.6985700829976599,-0.25365802290316175,-0.6330800525468528,-0.01078164523020736,0.1863015315547642,-0.07352694161032967,-0.3165287380277007,0.07954109475973414,-0.32186835612641373,-0.3629695947028044,0.29403608024964023,0.7809346676029985
E249,0.9563333027656773,-0.1534152600207751,0.36946120134393995,-0.5540866951568223,0.9814035874409875,0.2289053301255566,0.17686504803221914,0.12084264900855107,-0.5126922085281926,0.04670392428441078,0.34239182780066485,-0.218740435210952,0.1662277152464562,-0.4431438064191875,-0.7032286484585958,0.24563200918136788,0.6365233161482814,-0.5672561344509828,0.5346469793010247,0.15778925270625863
E273,0.5141057830412781,0.745488640987733,0.2859087797913577,-0.4050170219630117,0.7914898732382267,-0.27608972335946996,-0.07946774890215558,0.7375336924666818,-0.5903225519314023,0.009413953546291626,1.2161743255513984,-0.419776166344053,0.40896552885000576,-0.24760261213634846,-0.04482632820746516,1.0487389060502401,-0.9374269725514319,-0.6196692464751261,0.6371139334057634,1.1122157023709653
E569,-0.2933509678498902,-0.5589437143054964,-0.7559991296877295,-0.5533459759491336,0.8125628299030063,0.01433115629934023,0.14700717142874176,-0.511391937273602,-1.0112782422331936,0.42767972152476375,-0.2759076428147156,0.17275193921587478,1.4373211659612557,-0.13968989761646644,-0.9490062350038737,-0.4918577580124808,0.40421478021372875,-0.6450769722257846,0.22390342867111068,0.14860331214778055
E58,-0.11691632114729598,-0.03549729093081824,-0.3033693076088721,-0.13715005192729615,1.1615905329776197,-0.6484349657749124,0.47821998588456194,0.4316919425532335,-0.4617615249914452,0.5762428278277215,0.37862065463294936,0.16064022527715988,0.8788326534368259,0.16953650040257093,0.13441954380964735,-0.07805420076932608,-0.10955407677574844,-0.1812240777251735,0.15301981244709076,-0.17890420122281342
E741,0.26845643273176045,-1.0839474428986717,0.4093767428077934,0.3657701560376051,0.9918208219814307,-0.34337099066454757,0.2107564608123771,0.12637185109289886,-0.6486589467638508,-0.2630642663685653,-0.08162674001238705,0.23399931704539667,0.45765610433444703,0.027039568935513732,-0.8474242542080717,0.20939514421916672,-0.4293994540358266,-0.4156331510560122,0.2908047124351708,1.2091498182135505
E804,-0.11406899569825737,0.22407199713497042,0.7381104080773924,-0.1415664105468562,0.6015361508225813,-0.7791674483442278,0.12586803788811626,0.6028035295110472,-1.000563988872093,0.31550127468613837,-0.09187734648087298,0.24773613741144748,-0.05923387409222956,-0.42016343411800705,-0.44976254959908696,0.687279715696745,0.5551085002878665,-0.736279019726082,0.4573040822534582,0.4891096977153952
F1311,-0.4759759243594334,-0.4426454287209854,-0.0017490778760238523,0.5305999708219524,0.8940852768542145,-0.3363809796822116,0.3850641873234331,0.0435875876920383,-0.027408716974860664,0.6073758930731351,0.13265068624444054,0.0033057652749039074,0.8691980917419124,-0.3564282769941274,-0.863760323325735,0.187532537500404,0.4109680194329603,-0.2722987068752092,0.4432861084117524,0.7670290573090655
F3231,0.4577827856561962,-1.1472800086564674,0.625361865678893,-0.3648373001859929,1.0474160673968305,-0.2034447690779594,0.3709456429575481,0.27609189930455647,-0.3817215873254531,0.21354989970050064,0.35956865032598095,0.5955852065668645,-0.2045449929083612,0.6662939330151305,-0.9318370588322793,0.21969756076487865,-0.5460803744310118,-1.3321239468577888,0.2376320798656958,0.23048360635265813
F330,0.2636369558645987,-0.11853672931130987,0.8123798538733271,0.11226742531028047,0.8906462187081914,-0.5231241009708321,0.7145280602018413,1.24440972856772,0.34209015682718874,1.3094179457261794,0.6708823125159469,-0.14786286338747362,-0.23365203532652684,0.9997611337368546,-0.24238465792791958,0.8625707422899777,0.28196657329841934,0.6092618867575932,0.2628221226418759,0.3498362356156658
F447,0.09916714207319641,-0.8582605070695588,0.25772579564848963,0.12813837701697128,1.1199995719726032,-0.24474130346860506,1.4960551527675305,-0.23888361405537084,-0.4795178873499879,-0.06776557894808663,0.7964729447853043,-0.277616323460904,0.4060595144052787,-0.08884789899488599,0.262170767086951,-0.3899139868900904,1.018123141305691,-0.831606252367032,0.1937921997496641,0.37912309793919396
F505,0.9682827357757728,-0.7686957876729379,1.4529258675002017,-0.6522664979817527,0.22956398673880885,-0.13158301454752513,-0.44355667528407894,-0.34227086866478895,-0.4197573885003609,0.12685038247098357,0.14738594972266952,0.5465678297547815,0.33582030854058736,0.08894425235141636,0.003995963661499957,-0.6587428752310382,0.58973769465175,0.8280624486938936,1.022723413026753,0.6180137874537686
F604,-0.15613443228521556,-1.222148146732668,0.6358619112147961,0.2537473390272027,1.0430778924811168,-0.33238253489306646,0.43671723190838185,1.038069382014421,0.5253732802522578,0.5927853136336904,0.9833270939835124,0.554981671939617,-0.8495486794075856,-0.46127632898853455,-0.880460483690062,-0.22562488520425228,1.247903530884978,-0.7305474143903596,0.39698781894608276,0.09969418776105016
F61,-0.052336583919160205,-0.7623246934369187,-0.07026139522877933,0.26006333246044483,1.0553810254635037,-1.1187447267550015,0.4795434633821539,0.8752331988050586,-0.10451785929275541,0.07166620975346423,0.6218653762881423,0.15397678491016673,0.5297473248754107,0.0721885806448199,-0.3694341764032106,0.41859035186160576,-0.1324148565608885,-0.7508573575535137,0.3940981271228588,-0.3891855647298518
F69,0.41270172747463973,-0.3222243696415421,-0.34804190300529336,0.0484902036261801,0.927207691736389,-0.7140223298137393,0.8028746247699045,0.15276449339003953,0.15232233765119524,-0.19626927204985928,0.5657196557260415,-0.02620919414511866,1.098228184152327,-0.2671264264525998,-0.39517938568560157,-0.21748852139163838,0.28658270866224494,0.45913496115271146,-0.5421703258728032,0.6086337892365107
F708,0.7944493298234292,0.5103756123630581,0.010097209771141813,-0.7439508066699237,0.33636140140458637,-0.9811730985185929,0.527258185787134,0.8273676289252995,0.0273104739626122,0.33219867930645003,0.6820654124240493,-0.17484070742954458,0.5122206710826366,1.1689442160239292,-1.105844094704153,-0.37238045258037455,0.4994270573059364,-0.20248120752406934,-0.6507850672986837,0.6411070644466788
F959,0.4878908887416604,-0.31039580916741133,0.1037818555663292,-0.5128762515020515,0.8013041232555259,-0.22510007415755645,0.15106744535200173,0.7519814543935721,-0.32694372354030826,1.1146769667015965,0.9979036952663219,0.9220615487736035,1.1990698536081017,-0.20998994630510562,-0.862723636887383,-0.37089531935565345,0.17614589970912164,0.9946791377106288,0.5727840914819098,0.7178589211970637
G038,0.44341025880927426,0.02989155750459832,0.026671862558252435,-0.4705341313629098,1.3678648303909875,-0.7082687967461514,0.38000706098430326,0.10822913115463201,0.06451648159452594,0.45564281194363,0.06330541148895753,0.15666251828119254,0.2638683947627634,-0.27092008592942246,-0.15298913217020452,0.001841783539030527,-0.17083629934581904,-0.4198859651645003,-0.15393153812329102,0.6310163444349699
G244,1.02416508065797,0.08925961140154605,0.36451104363139974,-0.34420069236924733,0.5370396917563834,-0.059069005341253214,0.2777841514690256,0.40970581092514424,-0.8960329306866013,0.9891632612379082,0.7520416580889304,0.5761917906873281,0.9947717517374551,-0.066167539156475,-0.7060770213147448,0.6944255146316435,0.7626983540285583,0.6034105438854205,-0.5160955539606957,-0.0977538910526928
G248,0.3998593184937882,0.02477855273275531,0.08544193176292669,0.5693868535619105,0.8584542157817736,-1.2925673656929493,0.6163042927954923,0.5375774706953211,-0.6684529493588426,0.4753153551546044,-0.2726203139816628,-0.29124356468634827,-0.27071147349118896,0.012296475334035717,-0.4363037818491937,-0.17013439019978016,0.3373536249930431,0.2575670277751624,0.10596679053643437,0.3667479006821857
G403,0.40257939637925577,-0.8200258485808868,1.0969477607658034,-0.08045392399224191,0.9931711855079036,0.8641898824229114,0.9440320924184312,-0.13258109915483288,0.18686518277611533,1.5214148719911784,0.9700041940519768,0.03649634999901613,0.2914610724650804,0.33447470335009016,-0.8178675446717422,-0.3669140098556412,-0.30135163714884006,0.5005897307029367,1.175755358768186,0.7553128960194749
G441,0.33019669366274795,-0.28105834062292245,0.3704400292663633,0.3857909551940607,0.8999276820866865,-0.4038843067080996,0.708861023146781,0.6952947646032784,-0.9411009188147175,0.39519037680643254,0.5231523318029704,0.1047139508911793,-0.12644339473268246,0.9459239685135403,-0.40100243823579274,0.4396071703373216,0.045299597519993406,0.41218686430575474,0.4793038358664531,0.5367480083354255
G443,0.08594077982690099,0.4123834491962901,1.1996577370847383,-0.46703238628490207,0.34251748822858497,-0.2892695816498993,0.8015880528555006,-0.1728271982390334,-0.548575903555663,1.5095805452762883,0.7009564301550998,0.4194210398523597,0.48216700183604166,-0.45900991441582006,-0.7122673421284029,0.9973808972996197,0.2917251795978895,0.7354013493768796,0.6493326639717049,0.77399565513774
G450,-0.10840887653613647,-0.4788554860420602,-0.36944474975971164,-0.45591183881110064,0.7884867699477254,-0.7121969712411529,0.013528693785420202,0.0949342705990235,-1.0533821801080603,0.6413891702400399,-0.230781959071148,0.785250938631896,0.3622629871601785,0.20875901915428,0.09633643115774744,-1.0132204853428748,0.7631603526823904,-0.7064144323589695,0.27289966578935865,1.4401243413978757
G466,-0.151257853241491,0.34765098252049714,0.4374518689819409,-0.5546771926728856,0.45959507063703914,-0.038415591016067174,0.4534766035291238,0.6459059585383828,0.08693762514209004,1.8913642586906194,0.529971626604783,0.31202474047805023,0.32984127683386233,0.15529811914064076,1.277986151885066,0.3339443453990477,0.4138666186425738,-0.06551404835586472,0.23610372458264917,0.30665714559247603
G473,-0.09333281494891976,-0.2950088041451382,-0.6550698045266281,-1.1045105451365171,0.7939033517108576,-0.3814071613542282,0.7425570981396413,0.5283687345876465,-0.3225168397015582,-0.31207428815225063,-0.6617913744142905,-0.8234488829688787,0.6840683563425163,0.5317347669771362,0.6747784718290055,0.027214525668079498,-1.0981773727106554,-0.6473623999099541,0.5081637199654637,0.6409436148555481
G533,0.4679427989231244,-0.8218861283932208,0.4439702139417956,-0.3394499266480283,0.5293523873128922,-0.14000591640742313,0.7497659837437881,-0.37431142018944175,-0.08999841568626571,0.18314562956708827,-1.0532382029899716,0.43944941228794665,1.024578889198104,-0.0526632527292731,-0.31497464556851984,-0.49592711122855543,-0.12828967779268058,-0.9371177075967683,-0.43433722227409033,0.049860142142036046
G577,0.5715592658627028,-0.6916030769879224,-0.004438243971991981,-0.2085071810385288,1.6424838638336237,-0.9048572873164304,0.22233930527949625,0.653304683540068,-0.21890216898162357,0.7072285236000773,0.2580270738079227,0.3976971710852073,-0.19148013597836017,0.24858881931510055,0.0053507403040106705,-0.36670749942843983,0.967796591464246,-0.46117105975447686,0.09993524479410781,-0.8688828074060364
G578,-0.0014415985002211099,-0.3206359914944985,-0.5339463867851603,-0.28334700498426857,1.7915257551140846,-0.048107896885969614,0.5827690463521549,0.19774069963711777,0.06024072915656442,0.16046420344962492,-0.7935827755270027,-0.0780852858365304,0.8799299585223802,0.6104973332236598,-0.003535927365254099,-0.5543473080279442,0.09251307420048457,-0.17685958807754454,-0.061043014193197076,0.16376293113478582
G721,0.47937308644153775,-0.27536382000769677,-0.17277643482712424,-0.2743879440075442,0.839700278384818,-0.6617300212875485,0.33313160729361746,0.6030667207756772,0.7054794864988552,0.1440384628001773,0.4966445005324871,0.5328875070535951,1.0153538185643405,0.22031295732459977,-0.38359461179173127,0.09042229094251497,0.06433611164207674,0.0028970823767559203,-0.20414560522228603,0.5439708696018197
G737,0.3126345562103322,0.2145269542606292,0.27208371262201403,0.4858206586718762,-0.17750574600740576,-0.8668013919341186,1.4392969874816162,0.6489556047479021,-0.5531332844270929,0.5568126342848664,1.5717760349705374,0.024459075976108427,0.9181186051044565,-0.15970767747379394,-0.44581402387213287,0.3456818274165846,-0.48425443159308057,-0.8557669384138185,0.7850621733391228,0.38418204273712075
G8201,0.029446105716488924,-0.6733198611798119,-0.19581312471058449,-0.39781291428786814,1.6784680717476417,-0.4044769472232198,-0.8209465605277018,-0.5316666985900363,-0.5156685931031121,0.6173194956613894,0.4352638632943375,0.7372695821899612,0.5483568621538272,0.18215230633712637,0.5014369372645184,0.9252169702927419,-1.0073463384974715,0.31777729290837997,-0.5237685328909705,-0.06382891761825421
G833,0.6072484450296716,0.48835908225017577,0.6656660919396395,-1.685932797337757,0.7207670790311425,-0.44381869990714007,1.038564131900852,1.1446260273585869,0.04761728282557662,0.8129445212682221,0.8323742336893616,-0.10790143443421243,0.4586665306468678,-0.009311920494517074,0.6753961103799966,-0.5848098901035759,0.28664131768306694,0.3259570914039854,0.9348575353487923,0.934637582149715
G968,-0.8218269976956265,0.26378231431562127,0.19306189944534463,0.7267607199094082,0.9565096485766686,-0.5663515175859584,0.21747157528212968,-0.40106260682219075,0.3760682023599698,0.696417275954298,0.028340831081512058,0.04952475663964495,0.9916307156922857,0.5773669456949273,-0.31062778378850814,-0.7935328479923944,1.4586866431881322,-0.2436143455158233,-0.17137961896120746,0.1500159115018173
G998,0.5164734399145364,0.030413859829341167,0.3722880767328338,0.5402562829514618,1.1358911060796482,-0.5312535925950229,0.5662115872081224,0.24992471187390158,-0.2293034899139329,1.5881382784452045,1.0815534119326695,1.3561095276099264,0.9951604246468743,-0.14782800842157773,0.5566316797248246,-1.1318385676607636,0.08590758218661487,-0.5272904548254981,-0.2839914192218418,-0.40203922445932416
H018,1.2809525743962358,-1.0780582226136257,1.2298250808101492,-0.3132518907235467,0.2851937184129027,-0.5469018955640497,0.9551775689703601,-0.08714449516473066,0.06734695872468527,0.05086023956979285,0.6050005525010038,0.5214122352506776,0.20641487913194476,-0.725384436052356,-0.15151976475130058,0.7900006127852801,-0.02724185592304007,-0.263684650537453,0.6518765222063524,1.5636636518374032
H054,0.47892033614601115,0.0070717721844301695,-0.06487427914655583,-0.6621328751470683,0.6647907834232298,-0.19361863378654268,1.160390919353604,-0.274406288176508,-0.4118270400328199,0.7812758510079797,0.0549140620803477,-0.3333938777141381,0.40892739650445953,-0.18528855090806673,-1.0013545555174113,0.1145507507898174,-0.8029429871002631,1.1751680477526287,-0.08800752930720014,0.4923477837085779
H131,1.0526695324845128,-0.9745509744972248,0.08465528480228585,-0.7958184588255797,1.2888342532833885,0.06579981148321093,-0.9376597573662423,-0.7021572841062099,-0.41421695972842354,-0.6873772047994636,-1.5916844497513034,0.6876472443115333,0.31665919317329694,0.5672470214761397,-0.7661934800501439,-0.5823071964271884,-0.4452607890215462,-0.17300173150764264,0.556495612332315,1.145262376478508
H218,1.0354090492137065,-0.18083328107332916,0.42570452467147635,-1.3528728832088732,0.23613231589089062,-1.0128824792108164,0.7034818326556018,-0.1218372605398482,-0.054837522276992956,0.7428734972796585,-0.31012310604382076,-0.4193575912842682,-0.2805994862944935,-0.3115996940365035,0.0846719551698163,-0.03378622970758882,0.6524169783744204,0.16243334378428695,0.366124698820507,0.34724772271678933
H260,0.8046016002001581,0.5436494041218723,0.39010689487949024,-0.5296216588420177,1.2832425160461105,-0.3185565820313239,0.13756990204413883,0.7263499376621683,0.10345979747190737,0.3715765115320081,-0.07914570190369209,-1.6359072100617027,0.3333694992094682,-0.3598934439351426,-0.18425888693074066,-0.08987004067013259,0.5945066073502348,0.5284518536735714,1.196691006775026,-0.61897043337254265
H400,-0.461933896949148,-0.17597094969730345,1.0345907676825774,-0.39956394418831714,0.735544261316309,-0.0788325485187789,0.02981016739933831,0.7515988766173787,-0.22908419008591047,0.8283801025827431,-0.17742951720775588,0.6958706629038176,1.015627588026656,-0.022145639853314088,-1.1186091257420212,0.4902433675001884,-0.019331441210366555,0.06852625925436971,0.9038494608365106,0.9409581616427444
H401,0.12475353272277187,0.08634480558567642,0.2039645599491234,0.12373993088200176,0.8491543606442735,-0.5755749653077407,0.8563403411849664,0.07755654614555577,-0.44234797095502876,0.7324463722983203,-0.27598583190136783,0.48882961855072105,0.7424150566853733,-0.06796252886056875,-0.04609552568803055,-0.6018421974129629,-0.2832530930295724,0.6587127939615202,0.24974782405786108,0.19205745714261055
H505,0.9859601974473899,0.01723351731787559,-0.21929972375134188,-0.44981390001392807,0.006576318431742445,-1.1662392489562312,1.5470590880152963,-0.2816195386934292,-0.26314714033766995,1.0444291072274579,0.9088630397759783,0.48895300517865337,-1.0015017056485718,0.8214529925649292,-0.4169641741454132,-0.3704278837861865,0.6546278651845343,-0.0918426331689303,-0.30520583299734944,0.04277759054259678
H604,-0.05854900537295079,-0.8733325525259591,-0.41415976894183293,-0.07025364133673187,0.800266291857757,-0.3480832926508482,0.3309760384597248,-0.372786564822779,0.35018474335854577,0.07950960714489921,0.06270060402062821,0.09956024173456156,1.170238560429857,-0.4808295737177508,-0.5154218160446193,-0.23857812133675646,-0.7410092602450199,-0.09270682500382352,-0.011977058663742428,0.6488189147483163
H652,0.4024300949600651,0.19101876208926422,-0.09163576751702379,-0.3248284173038892,1.545688107374509,-0.8548120252731226,1.3704728615738713,0.39927840627265343,-0.06170816426650206,-0.06208390091534628,-0.4083856919025648,0.029943355910727304,0.04899602082936176,0.6834496655487963,-0.5827094365325726,0.15112954529412265,0.11183292295270306,-1.053855288139022,0.61383798090084,0.5616935477877258
H681,0.28650117527340563,0.46014938704194824,0.8035600997441819,-0.10901633967323568,1.3753406629077807,-0.4302632941441631,0.03600683811165048,0.3667199610081026,-0.20173531296216446,0.18918550627951547,-0.27342598727084677,-0.4454861601090219,0.5100986775320528,0.11886604087313046,-0.4734734573102334,0.7538233770982233,-0.3580948158278402,-0.15904318023054864,0.01100589114796472,0.7739820031239045
H698,-0.048408031141852756,-0.6242114240101828,0.18714430350362288,-0.8512534455387606,1.5346360803875054,-0.6272085997377221,0.37011681029329346,0.08873461922501426,-0.46874753547145454,0.32237720535729153,-0.09627217607279107,0.5564504257053869,0.4713378810210048,-1.2572219416682906,-0.2317555445453592,-0.3467243475396077,-0.32693182592418046,-0.1926426730629138,0.12449110408450859,-0.20941454388105094
H700,0.33873071866371285,-0.07131126174277663,0.359623121624117,0.11727261448276613,0.8206956549747527,-0.5093464648225661,0.5094140404255706,-0.31239036003495957,-0.629514977997808,0.8385567414563426,-0.02397418286652861,-0.2394931260723792,0.35753233926751093,-0.22722427321068658,-0.7262050087891713,-0.3217268455608255,0.7132289543618224,0.15982759434541632,0.8302882342142387,0.9070759098757102
I078,-0.936649497837573,-0.5821573146938039,1.0484344201779456,-0.5319153318610923,0.6456240281426349,-0.6963447622818814,0.18147958107485396,0.10684983247232788,-0.5608923940652251,0.4432199655422948,0.31611561362650037,0.38536366808800193,0.39320092256866057,0.3377081098387221,0.46063040598529126,0.5903786289807857,0.4095678877036711,-0.1668863802869865,1.0013008269080612,0.13355908395195837
I139,0.3733667510879063,0.573160904373329,1.5961365429787928,-1.0684708026821792,0.863481733752941,0.4258294146528743,0.26775685479785416,1.3488013852814544,-1.443864640913711,0.7466153899804819,0.5548251997923223,0.625447059973171,0.5133792350534296,0.24268560549832882,-0.43049314698299923,0.41989548622698686,-1.0091557731860143,0.2960490667856343,-0.20156914660421663,1.0201168931621465
I232,-0.46079403148262676,-0.6097271822698161,0.8802515150306505,0.23042892115709204,0.7329810124110181,0.44445351039095193,0.13758688414707626,0.10378999911149456,-0.7212766992373254,0.5407267008628542,-0.43810996113604644,-0.5437636829343613,-0.3269825546052061,-0.37603654831391486,-0.2634077924192744,-0.720758552964375,0.10898285825987133,0.16521919621863554,-0.09182594206165282,1.367675634522739
I248,-0.08152695767850265,-0.2600645341829327,0.784000642613387,0.3589109675088104,0.8294677727130149,0.21610704316891818,0.6141305669954762,0.7436320797638908,-0.08639729737300739,0.15594359704935398,0.2521991141412383,-0.04230298999079131,0.9162965552816491,0.16802386993901308,-0.86581137582651,-0.4457571943944585,0.7379467025562713,-0.14837825413744543,0.7540899793604362,1.0478194755960324
I280,0.9449621563523088,-0.6802725344599967,0.44091388702558354,0.708716481935473,0.5213186308312122,-0.34827702079378564,0.3999759094561544,1.0155106373472742,0.4508853422632149,-1.3981705819577508,-0.2389124987018763,-0.06522527675581241,0.995066626159697,1.1635798946762026,0.3033286218997,1.0224941733511905,-0.5176995208179447,-0.012755922938604558,1.4471107877120302,-0.5256890173534503
I348,-0.3743665368679334,-1.1501854559257398,0.6355415251517471,0.20077057672221502,0.9597068566691199,0.08388320206924811,0.013856251024975258,-0.37553700858561834,-0.8560876937649811,-0.3627521943289016,-0.5653471922225725,0.3363116433068748,0.6503108611649107,-0.6170061197409247,-0.5358400974635755,-0.07947062141943542,0.09964425865077091,-0.8432002760283307,0.7343814565300886,-0.29565345200986004
I359,0.25998374041234995,-0.31961965310485574,1.2218896002980848,-0.13936212788025604,0.9298411232368071,-1.4217222383212174,0.5754980480011329,0.9261934029651666,0.05589457538068565,0.5484547923300869,-0.11063692235401276,0.291191537779474,-0.3034959866929834,0.10087525198083538,0.33635113988853904,-0.9458304010345231,-0.7171506946319606,-0.06732296526750076,0.4741094047763519,-0.2843610325303116
I400,-0.47317436444962285,0.2103333559979288,1.0816950968503556,-0.45708564197672286,1.426294288581425,0.004845722775416145,-0.11225090669642843,0.35064449477529397,0.20821784704726407,0.5735265797269183,-0.4529772254148483,-0.14300967242042772,0.8224453427711154,0.27528037832530683,1.4179145138847304,0.9044040560261588,-0.4610385074914934,-0.010594062444948094,1.2065210532848893,0.3976082068411515
I424,0.8849663026818789,-0.050823869346267814,1.275039428154415,0.05221837712742125,1.0857426189043178,0.3566220441305117,1.176704592832774,0.4336471608039264,-1.1958946442868155,0.4507717428314165,0.17961272616612425,-0.09144210304031827,-0.23991764086688588,0.4050969428203662,0.4290848289942923,0.10657947689399141,-0.21111025767148123,-0.4378876858604072,0.5492340479176994,0.538935194878067
I481,-0.8747386470918178,0.09958225931916022,0.42042655480339897,-0.34784654491582057,0.19646060038600704,0.36990009242854627,0.5668310183648916,0.8928211165183559,-0.9678274974344054,0.9551884255089902,0.1719672263957218,0.18775643313342139,0.021653707733123334,-1.119436497158396,0.07349164696103444,-0.25142264715950213,-0.16229170023545095,0.013386971726844986,0.40475114610055085,1.3476825802930925
I605,-0.07123038947114158,-0.23091716955305686,0.6787383758491299,-0.14424464096754633,0.9087860511720671,-0.8910689399732994,0.13185105282340986,0.7355939338199635,0.002915724609265119,0.7820287602183091,0.2924244868711063,0.07888477512678253,0.09018246861045624,0.5016216765634183,0.37589183196548925,0.0814995987183543,0.12896441954371604,-0.20854308208358419,0.4314064411510332,1.2116534269899515
J108,0.25571510741671255,-0.37661868767595796,0.08728093537684165,-1.215548272958212,1.1770212195171248,0.005152803389403882,0.5215275846117273,-0.07195435016393414,-0.10310209096584094,-0.04733149245230028,0.47441123527091206,0.3995790252428565,0.1518983325342511,-0.940575456424039,-0.3356719955896789,1.030574163839652,-0.42754569873693515,0.20283539124927544,-0.01596264277692394,0.5815083081173748
J123,0.950117734113224,0.3795780324168281,0.39992327203947214,-0.9143339371732725,1.0681010664489954,-0.2851742748989366,-0.28316021503813615,0.7616563705118371,-0.26283997367749634,0.6036226383849616,-0.06494867819124953,0.417089683831048,0.6446533377853265,-0.2609710343282599,-0.14801538907146752,0.7405048555486975,-0.7866575131989684,0.12594113268325063,1.0092264570681435,0.852125252002621
J178,1.0606671123704574,0.2816895260868478,1.408588076299903,1.6456031881144368,1.1697372668452404,0.0867880847419187,0.9999256755148529,0.4341761472244877,-0.30673076230921414,0.6104276960842792,0.90014455514331,1.1582922612775715,1.1064224426322211,0.005668272371561506,0.11045324903871982,-0.8648318076007357,-1.4166119429430806,-0.670402274245293,0.8592098381337707,0.17769245423420427
J304,0.9228410891850032,0.0035207087410620286,0.37440813875220225,0.04514694968973218,1.0845389931195935,-0.5923628542687754,0.5838540767955762,-0.17706705345091708,0.22255129845378988,0.46301069650389104,0.9436272445219684,-0.42080432341057883,0.5359151620727434,0.07779234637402024,-0.5474191831075119,-0.5912705647190037,-0.43402492328836273,-0.7376799829509906,-0.19329592558940514,0.45576685062946376
J3802,-0.052467260952367485,-0.17963555726725283,0.21174249515261048,-0.3494087385069868,0.7735802587012528,-0.4875957796527369,-0.24829609521631996,0.7498257965194542,-0.9669018702482677,0.09342562410598383,-0.43901264581257893,-0.12139295238925664,0.07054762607489155,0.46725986368757766,-0.13072524448709172,0.44547343283281504,0.9734887335408986,0.21825427161034816,0.9626061439631006,-0.019091257806847076
J91,-0.38989920147928797,-1.0733952588090705,0.2057604571178521,-0.9503463432309527,0.7136922510143906,-0.3024615413089681,-1.143704830081766,-0.953430843886459,-0.07515725779088389,0.2726000689573351,-0.6657173744696334,-0.42114697301652015,1.662090365465942,0.34307439135904827,0.027126346317639605,-0.587108082947819,-0.11552304956754914,0.8017484110077321,0.294830832536862,0.24784379669276368
J9569,0.18043250631167718,-0.2079672318962635,0.34895560596935055,-0.5322202874496955,1.0565924478084605,1.011967489733459,0.033756691283476026,0.05033631665833768,-1.4902941251240973,1.0965537404968255,-0.023794824832989836,-0.8519724301840274,0.16856793740316295,-0.4993996242209542,0.712666010578071,0.6402719029518553,0.09276457412759503,0.13503657683916218,0.422068186979682,1.0525051617903494
K062,-1.1467121015108614,-0.6449596572903569,0.9203256968124067,0.3409340386680522,0.07023292090131289,-0.4500617248508412,-0.24805258873646946,0.21579353487014202,-0.8946808249349114,0.6666122021731851,0.26077486643864434,1.2189972796336823,0.2638597359106326,-0.018178180545675104,-0.1795449476865168,-0.17099346193640846,0.03221463468906352,0.5194549755711271,0.1389600915500292,0.4550734476464845
K0703,0.02705629557379302,-0.037820660005468715,0.04959839775973647,-0.9168021878791943,1.0584230967782644,-0.5513062520544451,0.9152122285728388,-0.44943116842071723,-0.7820316381322663,0.10189877759105997,0.09499578458596451,-0.5889444803313592,0.34281309067868737,-0.680898837318025,-0.0928293871554612,0.8352057252839048,0.17062006366274335,-0.5077489251330339,0.41568911972014955,0.45856317929673224
K100,1.3741807357099405,-0.16874775438276166,0.1655352570318302,-0.22869354584819163,1.3188210427079798,-0.45302142821650243,0.29605246826288295,-0.10115517396751705,0.02982350098905623,0.14767674437560488,-0.05364221013334643,0.22020897295559544,0.7058630634315678,-0.3867881291459572,0.2020165946196386,0.15021346742589545,-0.4501697047969312,0.4317327741131287,0.019531699151255303,0.5934061156759932
K149,0.2732660093242262,0.06460768414920226,0.1029546229568388,-1.4336513676764484,1.0193814446489633,-0.3624849702416113,0.36636686917800443,-0.732293684363288,-0.18258447062055608,0.9607024657720875,-0.01851180511840403,0.15579465244287966,0.7800124894441345,0.660127035672216,0.26783890150609185,-0.5594305213542593,0.5771920982037873,0.10288934655352,1.0729714715751686,0.4988124691609374
K272,-0.8990151633850658,0.03866850838563207,-0.4594784300783697,-0.9002414924969002,1.6484885893798253,-0.29073245336141984,0.2799564308998982,0.909499393224853,-0.9601939408328676,0.45166158593131467,0.5266136260027438,0.13716530634685564,0.7216794604427466,1.0785985316417939,-0.5988454989340866,-0.06899047825547905,-0.018509189214199195,-0.7140504743387304,1.4780530950817785,-0.42015937295862843
K284,0.5215536919522104,0.16257524380070493,0.3869788243196077,-0.35379630090466957,0.7224617473565286,-0.8395934613984581,0.7172292731992242,-0.5040136988584422,-0.9278571856207575,0.5747245843901907,-0.2830648409107069,0.3117604571031069,0.7556569328337955,-0.44316782421173473,0.31634813140110696,-0.6710430422996185,-0.16497923599437708,-0.15688210817751636,0.1370663414904243,0.38517176188708924
K4021,0.071307301708165155,-0.13179719816732766,-0.8548560593683519,0.3288065337324181,1.319088916609261,-0.2918406998180597,0.4331378693858458,-0.3779478371613504,-0.05841109161063164,-0.1614538024137604,-0.7038443489626107,0.6079202344988834,1.2469481857783955,-0.04828465617110733,-0.5966357050254896,-0.49460943453050366,-0.09002434408592615,-0.8325723979358794,0.22540397982936083,0.424653914710553
L048,-0.3097172949467491,-0.9803871001620157,-0.16467945176016502,0.2114049816509247,1.5874721206647124,-0.7042797726186063,-0.5258225432209289,0.4853381140059728,-0.2003002905129057,-0.6168082452243533,-0.379292170177012,0.3673305975616652,0.9128058896585319,-0.46947886993710775,0.6234648812684964,0.40789943691538927,0.7995941582798564,-0.45022140402323707,0.227768295380834,-0.22810978318941008
L059A,-0.503191023023643,-0.6455508983250292,-0.15249454954038819,-0.46347342757142207,0.8997396788205134,-0.951285372056405,0.5947785954670268,0.0034728976415482754,-0.35942520569493286,0.528935800316681,0.29271932006897655,0.41687326990044565,-0.08767702105105878,0.0023315696376760425,-0.22731428025728395,-0.7907106716148821,0.1686668518179809,-0.3569654443227702,-0.14774092079308113,0.313562199592735
L292,0.023750057264427415,-0.5712311386822039,0.6077667460878032,-0.14009741820220029,0.673757592795349,-0.39753000924532567,0.9092205850728785,-0.08542847328972883,-0.2924339415701227,0.7370014147940374,0.5892801004459152,-0.011921614605508307,0.17845299128740302,-0.6025229123568179,0.554611851815451,-0.11791384606688665,-0.06747380095460709,-0.663815964156421,-0.29908888877415063,-0.09750184650697313
L401,0.40592682656275714,-0.1424535279114329,0.15393609298425492,-0.32305638413898197,1.3750859369804633,-1.0594542887914773,-0.3159195952602605,0.6718162091699292,-0.15980207998173526,0.7665903818026656,-0.25575652176995534,0.04411549000105608,0.15864424869909316,0.16901186964236692,-0.5035484702350866,0.47075616997216696,-0.12384594736704835,0.2656736814053419,0.20881746952067806,-0.09556967376059046
L711,-0.2815475066508465,0.6100919676733689,0.37172484409237616,0.04261879665630402,0.44287309759971066,-1.4963511850458344,-0.3547821633646457,-0.2685670271045035,0.001000035887449402,0.19261201922850274,0.13057193176731083,-0.09414086615788049,0.2742513882125514,-6.183248665205254e-4,-0.6801593951188113,-0.26823601535878777,-0.28185004810325726,0.29675501231836315,1.0627905095152905,0.3218947300016511
L8927,-0.9360961904896297,-0.283949719264377,0.5872918788936654,-0.4294909767892616,1.226027550284238,-0.5804733433186093,-0.40427738971255656,1.1911749902213769,-0.44661525425528015,-0.057740383918560234,-0.8613727835334204,-0.08949660314697343,0.5919789639366124,0.1921908536864386,0.11816348049762117,0.6763035387008803,-0.11669715545818651,0.012980729173773138,0.6031405224119488,0.01125165221634486
L943,0.7314034234088559,0.14522603707216092,0.5085693145543285,-0.3528968945357922,1.5890173808427739,-0.3427879205610602,-0.3549386870962423,-0.21825700117492094,0.07942467910914928,1.0741520772205129,0.17340364485347773,-0.6025316342122675,0.8373798110373198,0.32338169347457996,-0.7060378075992434,-0.34089470434587005,0.08053370341331353,0.5236176931153447,0.34307542630932086,1.2741962851821902
L982,-0.3060217943849702,-0.241173210308308,0.33070432229606805,0.940743525825152,1.05551631540285,-0.44453400767257517,0.5196399756495134,0.8634799425167556,-0.8930057799698222,-0.29206917322110976,0.0774120702829311,0.0669707039816391,0.18304855859896837,0.36447485610193014,0.9741827815594553,-0.37165172005465724,-0.1854734234159436,-1.010467140308915,0.6080316871331743,-0.40237889108459757
L983,0.11784992115769483,1.515937663305252,-0.03584508689865096,-0.013014898908914024,0.8507953072099294,0.005109483184214919,-0.03122113161951258,1.7215507110960688,-0.5825801856266406,0.29557498738311316,-0.3058148532378161,-0.26927524729172003,0.3111170107584775,-0.1895266265153004,0.42670296604864366,-0.5966251855674427,0.6086757164994702,0.30106864149887624,0.06384341154029236,1.1154181288895089
M0509,0.08132689715889255,-0.9896164257930664,1.4671019508748908,-0.36492619067381193,0.6821684798648691,0.04193460320528672,-0.7214353136914499,-0.27157386244269915,-0.06724584803430493,0.7843888890260065,-1.0603438583794444,0.6252054228503263,1.4540365527237467,-0.7715346626964203,0.08784153239757841,0.2782682622635228,-0.49805097832632694,-0.06921096424253237,0.1892397332153257,1.5566089758161443
M0592,0.40562495950043553,-0.665748683628403,0.4830784299798766,-0.7695455259716484,1.3544015500022208,-0.24708927374170248,0.30528984277553,-0.1085315653213965,-0.791115839735291,0.45672824939250584,0.7529647108130322,-0.39474029746812045,-0.654114850570672,0.7723921626981809,0.6588382504146824,-0.29346108107568,0.5673504730197345,-0.16960359107249207,0.44060073404857025,0.28050667410829055
M0689,-0.32640179512704437,-0.3359639643843093,-0.5560731163001076,-1.2707065582675177,1.363975809024797,-0.10503151284438744,0.1326754253147909,-1.188444283310213,-0.6522471792663602,1.134075522321621,1.013092515128052,0.17308369364121026,-0.25350595591942787,-0.21086139092160064,-0.4307994112753607,-0.09285091821716995,-0.17194329926342516,1.5190209779617045,-0.15197087490929934,0.8005383067332307
M0730,-0.4414094529404603,-0.34479331486789055,-0.345174233927198,-0.42356917860041987,1.6229073626766812,-0.8503801301148359,-0.38414953456387674,1.2927268952808664,-0.18485182335894587,0.4870022361392795,-0.4679729316895042,0.8014067009348552,0.6772211838940736,-0.21442004450271576,0.5018842554255672,-0.3691936873688519,0.4054491819610617,0.28510723646351727,0.7462230861533541,0.49848144510398945
M1001,0.03674955713814208,-0.693242226391948,0.6167209335897448,0.2083874452658671,1.6283378483029969,-0.612811523949506,0.21779447785975786,0.7632311208688574,-0.615930078863863,0.2926933811533295,-0.31842619158806973,-0.335708161727301,0.09030523797097756,-0.18766553386697676,-0.1805506445882489,-0.2035247500664014,-0.6540759862721727,-0.9316632723499365,-0.6194650891277594,0.46563483832140273
M154,-1.7034867322756058,-1.2984003687432175,-0.09139764530196814,-1.0695375485476157,1.1322294618822228,0.6750004160136717,0.7682058979942145,-0.0058677102275587895,0.03707616591243368,0.9524802154174563,0.5497476212995556,0.0389058190060233,0.28302191881003697,-0.7779468592497821,1.1039195513188806,-0.33409319125283654,0.18575795088007158,0.5033274261624097,-0.5260112739049693,-0.7692717842437494
M1988,-0.22306115776677937,-0.337546752554006,0.003734757477520889,-0.2703345619022017,0.4943260140673649,-1.0443419039837418,0.31267436831404793,0.5673922196776096,-0.5850889888522643,0.1612105695856441,0.2602263956747837,-0.2615450949329441,0.08560578667035362,0.395339753137225,-0.33217998342182087,0.034835835230670464,0.02097495386708484,-0.20427120382927083,0.018164422151583384,0.3944652216889779
M2107,0.6781773952510866,-0.34282988908901724,-0.1036547884227999,-1.380452559343723,0.6489596306874541,0.14577420184617787,1.184733539334731,-0.3686317811586597,-0.0968120733080512,-0.054844883142057765,-0.30088247176948973,0.11027014822068765,1.2814623504327138,0.02805630801887407,0.0034213868930478564,0.05723862674933283,0.42369876444318105,-0.4206200451963331,0.7254443245590131,0.5868638939858395
M2124,1.020335666978894,0.16267327393946995,0.4614342766747434,-0.049397424111187443,0.10039436478101915,-1.3328345996565174,1.3919210218074491,0.27744396592003895,-0.76892093665505,0.39630435523608565,0.014433282849880907,0.5159881210405342,0.5048552942072342,0.3411574468129424,-0.12328943697973531,-0.8418207280376941,-0.05024962292110205,0.387045568644479,-0.3927444879213884,-0.020815040419584527
M2157,0.8011458697629279,-0.11603379700955746,0.4680924082538905,-0.2570090904204402,0.7673161588819459,0.13226575227925408,0.6610995492530413,0.5951166138811443,-0.10658198505430212,-0.02498951659357973,-0.30903603132911034,0.4217018819188784,0.4992575433163241,0.013207350088346961,-1.006823741864826,-0.3210114226393987,0.6286135481901269,0.4275483491779196,0.30080047252677167,0.32647595600131823
M2167,0.3175896790205282,-0.3416295890073756,0.886276231151051,-0.10402546737650656,0.6199831265462795,-0.9301243596909127,0.982692328627121,0.6270177690322225,-0.625996621119651,0.37374315447641676,-0.6668043638802854,0.3838336877049769,0.07775305895529412,-0.031947967370741896,-0.30332174417728114,-0.53281716738094,-0.20266264034138337,-0.5100424175519452,0.3789131976092377,0.41616743852076776
M2176,0.6852150395777659,-0.2120373070542996,-0.04643207561948878,0.3817949512452653,1.1122486392723936,0.31431429901994035,0.6721122789820453,0.4108982812620728,-1.5559280677843843,0.4713356478635925,-0.6179849622615363,-0.11785591887057531,0.3414591284052396,0.5772382577729498,-0.4637283124384127,-0.6855373342398916,-0.22759200836766713,0.3359637794560708,-0.6186976007653974,0.2800072969514171
M2401,0.2789824631268948,-0.3780400376848721,0.4133123592291754,-0.18732731994832508,1.5195238103686162,-0.15713840270132745,-0.19167746779537156,0.39635937634842733,-0.04002784998972073,0.13764689220976192,0.10701234401744718,-0.3694686761907044,0.3678814351235027,0.3154160349708392,-0.5163673037711549,-0.13822165248538554,-0.021117495345843063,-0.3456545142555422,0.6263997568241166,0.5557788446480361
M2411,0.6872317689930352,-0.7287840097451328,-0.21782871621072608,-1.0800801184583904,0.10728526985611768,-1.4377124291572918,0.32634306725964596,-0.2502948428847884,-0.7393809116049526,-0.0552897816474147,0.23244301984910912,-0.1712702733254619,0.29852889557177414,-0.28797144933998936,-0.5493234117378066,-0.5120383242340273,-0.2947580377983328,0.2519546243261115,-0.08228068551652892,0.36085241119536904
M2457,0.8188821672805484,-0.6508824750988995,0.1277184416416664,-0.285681317391294,1.1335029098576548,-0.6050891697793975,0.2758588568881556,-0.22441064638944777,-0.3111026258734281,0.22008959310677267,-0.01106845666857384,0.3248548023744948,0.8638461491195943,0.16060404150250346,-0.2434932946440869,-0.030198717201920286,0.048524644973766566,0.05952560548351471,-0.1693300023119491,-0.06333170232239858
M2531,-0.6291209540088603,-0.1573017033951324,-0.3652002150614416,-0.17879884769956123,0.48612383484243527,-1.225696989868727,0.8736507949109316,0.5955183444541099,-0.11964860327401255,0.8083879589781333,0.6826203520905595,0.44367751291430996,1.2282789452943224,-0.27045146688722355,-0.47968899985438335,-0.3344573065629916,0.3086276616621175,-0.22606191134591036,0.7369847601487036,0.28655172409631646
M2533,-0.048302424244820036,-0.26697998892784003,0.35521523495855384,-0.3126271587185824,1.358654555770177,-1.0129022237485117,0.7799587839252252,0.8414529133626665,0.46935861880396623,0.91106829154709,0.3246120333084952,-0.5895569666755007,-0.12387331389680514,-0.33920569680750123,0.04192348960209956,-0.8034893067657518,0.5181670783350183,0.06212629004926962,0.1536717202073835,0.6751662158512491
M2563,0.2656748902491131,-0.8067040171499347,0.8050691789204508,-0.38060049579925403,1.1493264959347704,-0.716655272935774,0.04936242923616507,0.6048438972879325,-0.882982212775407,0.8599069522453054,0.3462877590829551,0.9499840951496492,0.010998628794492815,-0.06677530955389788,-0.2106885008444635,-0.2929813990618494,0.6118846327633158,0.3644263887784258,0.25086174607803025,-0.2900006015345219
M2571,0.17700795050200252,-0.14244496898282874,-0.22446573430769637,-0.6519007445727525,0.2960126668236793,-1.1156012455716997,0.9507095488593539,0.321245570874935,-1.4440893030159614,0.08871363697261318,-0.8501539249469268,0.7875146374080548,0.24524473321525947,-0.3085389206833351,-0.02096586289323546,0.6585528597270185,-0.39244696293238096,-0.7553089167766017,-0.269396963981277,0.5883655170916976
M2572,-0.18728605878310572,-0.013611712580769958,0.8371027672318828,0.15712051958791642,0.32096813495910814,-0.8625941798608683,1.4987453053759618,0.6335056735066791,-0.642308276787896,-0.1702493188119172,-0.2904626758106019,-0.46700795862075134,0.21929485087278267,-0.943847441052837,-0.5297608871835725,0.03810284972878131,-0.5106476924768883,-0.20890363251201494,0.2146037178499643,0.4387559911349742
M339,0.32519582009536685,-1.730843933241825,0.05780040472239867,-1.5593112505342193,0.8832404391151407,-0.15433369160659366,-0.0011964541284023023,-0.8491246648228051,0.38301763910716374,1.027607829835994,-0.38648945904745735,-0.5367172175572882,0.6230215533120048,-1.86632408799278,0.5789692672999383,0.359310578297777,-0.03679729177018956,0.5379380572204714,-0.3332893993996434,0.46488293108155837
M4326,-0.11012651036301689,-0.529461043234865,1.047099567389089,-0.676895951328223,0.4700348752832371,-0.3443735677945829,0.5239904504644695,0.5488201562548446,-0.8225290186282819,0.6136116753779531,-0.475584702180444,0.621737433570636,-0.10054323660189791,-0.7680217638343281,0.14107941806639374,-0.19775568682455777,0.6746229358578565,-0.44924221487582006,0.6175696595462791,-0.49065844269324843
M4794,-0.5654823755265498,-0.18049669469313115,0.6644718747414131,0.001328029080511237,1.2156760960330282,-0.667988758701964,-0.006987807572414642,0.9978893391045438,-0.27029370025171484,0.3565699110984067,-0.21881068941007215,0.2847652122109334,0.8854037669615555,0.32081922625881165,0.7526229857718083,-0.42328933634480814,-0.3269996742803398,-0.03511369687556448,0.32728319054954524,0.7147906163475358
M4805,-0.03385211403803076,-1.088189966431477,0.936578828108252,0.04219097741255463,1.2266441677185371,-0.1661213315249855,0.5165036378994887,0.19652650396208304,0.2466597076167863,0.29359532538068667,-0.11826124076681015,-0.2518947931885028,0.3433251585049353,0.28086520328093034,-0.28030185362158305,0.24143546823348483,0.1336111291695197,-0.12350325085097365,0.09628187484823825,-0.05865206814315084
M4832,1.0915662797143746,-0.9165865721914721,0.3265424706078607,-0.6134716386381339,0.26611555101845097,-0.9998871264041997,0.5961198655986482,0.295270830980985,1.5807666237544895,0.6891034756322206,-0.057175815462624346,1.0253268628771897,-0.054934449491741574,-1.349641741507979,0.4204684433732721,0.9376389577156257,-0.002998031741681423,0.2010567390097327,0.5117476775105594,0.32873521022004665
M5488,-0.19183454336974912,-1.5328835221222725,0.576372032692962,0.1306507504024354,1.36467499885138,0.06515315523837863,0.5024034860652427,0.881490706366148,0.08539030149250731,-1.055103686758774,-0.05300522194743901,-0.6733899072609706,-0.7387381057567619,-0.15844574099326697,-0.29338852823370626,0.09618038619852798,-0.18517593050676348,-0.842190302981763,0.06378311809314907,0.42221747615918964
M5493,0.08198263146699106,-0.1399074148373688,0.2100314095282142,-0.11565599983416816,0.8398609544260195,-0.38379071393808323,0.436163688268954,-0.08351272998815362,0.3805289525733989,0.36057948742350404,-0.3102991310096627,0.605415910390201,0.7094881047422574,0.2039246574743465,0.31349083831987823,0.035730262540952115,0.27697315367449576,-0.20253673272800374,0.5739559392441062,1.3309694329247492
M6295,-0.8129196944223593,0.2001835282128156,1.0395535033547032,0.3123158598678907,1.4467553768533152,-0.35512289616347054,0.2614237483482909,0.5449093855584501,0.08549782161187836,0.42287034497767095,0.17817252868848182,-0.15926315779779246,0.9656194195319385,-0.34700903242304015,1.2196752579392534,-0.9101671224826662,0.12368872610119411,-0.6016541724816653,-0.21772061852202382,1.1054925385252987
M6647,0.5539334143678475,-0.80610284697364,-0.3864713703974569,0.4958862949659166,1.5191495336428622,-0.45734951125490164,0.8942890229727727,0.12388235256017233,-0.2760702674424125,-0.5603329921256044,-0.024891349992184675,-0.22187728515848276,0.3922567049252983,-0.10621729429087516,-0.6554272220864903,-0.2740150673870008,-0.619766061590578,-0.4845363978427789,0.332118142852593,0.8334181611301376
M6735,0.7982153163974175,-0.4512560997478757,0.6505740425906426,-1.4492642467781713,1.5156393601147622,0.1560366170164938,0.251794607004278,-0.8185363997549306,-0.10325543335204532,0.3910297861840632,0.07982102236950966,0.21791896488261592,0.290285974538094,-0.19876357225199734,-0.6110713590265611,0.5177365923274893,-0.16729839492441845,-1.075550348159463,0.8754737246773481,1.3478805805005174
M7196,0.4089610950338406,-0.4508341895885001,-0.2822923460238802,-0.9838797174937985,0.5318609265631078,-0.7832687806399206,1.3606192224765201,1.0173247280415065,-0.736664531676599,-0.40718620720822984,-0.4004962568856206,0.14779135049888525,0.7425901600506797,0.22055075832225945,-0.6561173116225056,-0.15844219346422744,0.06510440502311668,-0.4978330911430843,0.8913199163308045,1.8555073986781099
M768,-0.6641581546359523,-0.19750348343376323,0.7368439564689373,-0.4590937222199598,1.0627157553208242,-0.16851578511644744,0.09257889692881797,0.8399439630610936,-0.86581629161466,-0.04066112145174994,0.4430134834010164,-0.993298435130075,0.5366802304360533,-0.0945915108740921,0.3764959925955307,0.8409099663063111,0.033589265558863386,-0.5747612835405621,0.02127188969095381,0.3716472665630166
M775,0.021836301818683915,-0.5409904086108275,0.5569559704526538,-0.056788012818770245,1.1948219795911095,-0.13262545431794642,-0.7879024542009103,0.22537487954651866,-0.7403068817230107,0.016194848606242512,-0.525220624212702,0.3058629087534972,0.7949605018300008,-0.37291254132459484,0.3530138830015815,-0.679576921792783,-0.15399632470429425,0.08631317146146453,0.4228147398472697,1.2595666837336488
M7923,-0.36664868096180764,0.5618698886081266,0.6106405110141171,-0.7609082948585332,0.4114406332990951,-0.5015236515582767,0.15904696003358604,0.5965479178179687,0.443981473930534,0.3802576831547903,-0.0035743019400847273,-0.1470065443691082,0.798661398235681,-0.4759692349870901,-0.8538143106142102,0.06944048139483341,0.6069829414131127,-0.17090824154126116,0.17238090703273976,1.2986328806174399
M7956,-0.045005547936689316,-0.49993659462303564,0.7274645094463237,-0.32943243242302844,1.359224933372075,-1.12352970450913,0.9729643951768598,0.25606704236095673,-0.4633679366382571,-0.687506837435998,0.2825147347649377,-0.3376391862289671,-0.33784470892083435,-0.33178374661418053,-0.13091378771636397,0.26411857405968225,-0.347064185760368,-2.0539893499208204,0.055042356762614035,0.27201066522230455
M7960,0.3627030810249854,-0.5703713677579989,0.6323362317293958,-1.5617747303920346,0.3766776143359464,-0.31103766390163684,0.9698199129586624,0.00793556948412509,-0.046220162402191324,0.5348119263493337,-0.31118309224256085,0.2800077933770418,0.31244485517698606,-0.2562122204803568,-0.6789987913997589,0.07286663734611444,-0.05167156430139855,-0.4351283412910909,0.09509893132308309,-0.3515131653861214
M80043,-0.47391549484678164,-0.7003446388552503,0.37726153871935486,0.8655308897947084,0.9524288273632485,-0.6926930554888073,0.40943502957847144,0.6660848612586492,0.23516899256724427,0.2166308676275512,-0.2101128902839149,-0.48360318070505726,0.8236468058687063,0.21270871134727765,0.4444808272215194,0.48257859865270836,-0.6705788715197889,0.22406977276427145,-0.04751977256967549,-0.010619033960370422
M80109,0.5152678903810953,-0.8335535799203759,0.40239644445194334,0.2659860439093158,1.0080723845397137,-0.363902727815137,-0.5883034617701663,-0.1736540633256447,0.9444676102226612,0.42561785119639006,-0.4809471869083598,0.44573409037829925,0.7491489634206593,-0.9008727612061319,-1.4273331800340037,-0.6428528387633194,0.094658230010022,-0.018453537977237783,-0.1254610605423701,0.4310669721524477
M81010,-0.441565715881562,-0.3260767512421204,0.827733774222913,-0.7840985173706949,0.7503633226258192,-0.6541617182383548,1.2276003081167235,1.4412085271806152,-0.46975760727758326,0.23348357598309374,0.11826396727713609,-0.005126556552370494,-0.336453654121037,-0.5680481721029521,-1.1364084239226424,-0.3823516440485775,0.11160485017294498,0.37917445986432,1.1519362325307685,-0.4301186136271963
M81313,0.5453586595273573,0.08344981437252735,-0.030237134740403904,-0.5714392588945635,1.230206612662208,1.5844440513763214,0.9737876598698805,0.360226813133566,-0.0014712237453983201,-0.1341962977646809,0.37305251428139025,-0.39200378761003996,0.5610661103052312,-0.3612850629529477,-0.041736696232599624,-0.4376563155044018,-0.07372854648709919,-0.5111269346314851,0.5577359292334924,0.8987258853312652
M81700,-0.08979670117833805,0.10650670016859187,-0.4459751987706393,-0.3617407679246386,1.8310438085140968,-0.8154529921025857,0.0723379002790191,0.05178240108968474,-0.5081371062747772,1.543196122353435,-0.23030212561373437,0.366901617340659,1.1182925294792392,0.09816213715745359,0.2918035233604981,-0.8290810389861414,-0.07093464090631914,-0.0523104507916036,0.21066130278820266,-0.08385945443948682
M82203,-0.45902937121873905,-0.47055961443881966,-0.171592858278816,-0.493583171363042,0.8718739170946271,-0.40750127113076734,0.18056681413912345,-0.21938431526290866,-2.058573155290753,-0.4027331613000982,0.9624064778007249,0.46480313651249183,0.3091924470037088,0.013945361281062996,0.6395612232611609,0.42086148094233444,0.30620511619960555,-1.1215834298345286,-0.19006444780152382,0.45767519925825273
M82533,-0.13787264061985072,-1.45208001941808,0.29904522198159134,-0.09340751493942188,0.08193276339986061,0.09747860890524482,0.11454062885852546,1.1665593292449603,-0.27127557788372064,-0.31428091264883395,0.2586533315493417,1.0542186438571908,0.26309181011368277,-1.620452118807568,-0.2672441903252904,0.7730137931838887,0.12984549603933404,-0.03003427762726993,-0.28695524025805147,0.21228071837499854
M84100,-0.9155832210083865,-0.43260997521269795,0.6154767852298164,-0.7941010549995481,1.0748002109724462,0.49884555025974847,1.295072077868505,-0.12147872241348001,-0.22804265502562443,0.12320471501422653,-0.8187512013655267,-0.5550180699918539,0.6759212684765966,-0.8983767582814096,-0.5569739113864274,0.07917632727086607,-0.5709360240353242,-0.6043587219238653,0.2841697337360867,-1.0049159433965231
M84521,-0.2664029241690139,0.2754625351034863,-0.9443219774643914,0.1391848263358681,1.4304761327508886,-1.4388207321797215,-0.22014058399804332,0.07883955296611439,0.5288800937345048,1.4751700240409258,-0.27676363252524383,0.0755718323046472,0.8231474741271185,-0.38554769154886076,0.5806181342486548,-1.1526822497655664,0.5630159021374421,0.397260293296099,-0.08431926038158832,0.21563677699827127
M84532,1.3853057070687216,-0.05406428678516456,-0.2118999027975435,-0.9583032669690257,0.8018403119947034,-0.06204886539767007,-0.36466207914502646,0.5753343341415071,-0.5961395944426393,-0.5327333612429527,-0.5526223914065618,-0.6143443579299527,0.9544158407317267,-0.6523707121485388,-0.48171314911255714,0.38092492068098516,-0.3783187552848182,0.6483262536206573,1.1819907927206685,0.06811217673274728
M8618,-0.5651769650057428,-0.6056538658995648,0.6549828454431758,-0.6899104261819546,1.393413838850938,0.12621494486266854,-0.903708076486799,-0.70571611894218,-0.27245864038818357,0.1866690095618973,0.0809768433566656,-0.9646469382948067,0.9335544370796856,-0.5226945532813883,0.41733058336177015,0.021692637545122434,0.5127120276628221,0.39155379819484465,-0.7054448561252549,0.6745929814513715
M86803,-0.08635709417528584,0.3200642026227078,-0.09509250329602054,-0.6577012241650353,0.0784555653992211,-0.412803999461567,0.48405872975351466,0.03348644955085056,-0.49411381404048593,0.9557544283126322,0.2848626173824538,-1.5177115941615196,2.1046281403883937,-0.1310218343641233,0.10413571188269534,0.014880938106823116,0.047255864478341625,0.46141290252216877,0.01818082558893641,1.1052070398800122
M8785,0.08645790671529027,0.014760321046300151,0.4107119045857839,0.1183594743033429,0.5966045883746994,-1.221517293624481,0.7399717167182722,0.6257565167375546,0.32350632093087084,0.5414008488064539,-0.2038253129512404,0.3831019501618869,1.2475786813959928,0.2252587876588915,0.06690848450629719,0.11318421887718981,1.1123764091620987,0.09801693273524537,0.10051394282819212,0.12756402651750934
M87303,1.2008718363680626,-0.8107143694950456,1.0862260767250298,-0.729649045385233,0.4582462103790046,0.16469136632704962,0.09318372016797954,-0.4433336350044731,0.30239230064349526,0.9075300754599223,-0.42126033510767336,-0.730217704032878,0.45944793563506003,-0.044785677258270123,0.5950744082169553,0.03310892234156215,0.7885921786580513,-0.0010104165486956307,0.7534530392551824,1.1259019189410284
M87306,1.2139537316099633,-0.7174720738071962,0.8944458583090779,-0.9527623403087474,0.24060554811288476,-0.08077569214711743,-0.1322641510637459,-0.266684751854814,0.18843925072160278,0.6971074905678425,-0.26528642281895704,-0.5326530633935668,0.5047723393178247,-0.18916745981877664,0.6528604022895961,0.1618059096966322,0.6931673115381145,0.2592604072015965,0.8537299435011027,0.6620123804436233
M87406,0.2571280990537189,0.16424094511282666,-0.29029796445074174,-0.23941182608403624,0.05261394736869521,-0.8986219081105494,0.6384686333870784,-0.3859366769302421,0.4501605639824287,-0.7738941140577901,-1.5924701696924974,-1.389590204697929,-0.24164903177427427,-0.4631036228971681,-1.4363244376267947,1.4629606794547523,0.05937630873265265,-1.0520363890166353,0.2505000753586674,-1.1880898774769955
M87800,-0.03491115924268798,-0.11215699934691553,-0.029605767253740034,-1.0399075288371076,1.1906729396995583,0.5891626085014328,1.4203659841938034,-0.3511867258748307,0.06277378335149222,0.4110487225960752,-0.2755136199112391,-0.3053051482521057,0.49674164177781915,0.010832400388197182,-0.5211270168343778,-0.6748768943183927,0.9466182141466419,-0.6693016217604062,0.7533108009034535,0.5418529436884041
M8883,-0.07736216113393779,-0.14838039236835676,0.20177180797038527,-0.4655715893684277,1.2371111060474265,0.34415425012383416,0.7214845041147071,0.3610828561021351,-0.24129732401868875,0.5899028062440564,0.6893225785672559,-0.6260306117925923,0.5956804044998842,-0.6674090515859753,0.012211153898832539,-0.30074458029457013,0.690710639117899,-0.5518057206606795,0.8874153860917582,0.18553555485520368
M88150,0.26160052585930654,-0.27497619229664977,0.2217071932175267,-0.8945736780839966,1.0149023732224347,-0.3389939816194203,0.6594907144991451,-0.5169821812682254,-0.7438395412962684,0.881893681549081,0.011977275262037654,-0.6016534728744588,-0.2978755264189913,0.5489889163204875,-0.3468735736195428,-0.23973983052187653,1.2505427400962545,-0.133358064422602,-0.34809360275664103,0.961038721983712
M8997,-0.22555937812575141,-0.18032540268226277,0.18782613568321183,0.2847693967617116,0.6319395526058567,-0.6434017465282366,0.3325840729793181,1.5737808337907049,-0.2987977998835013,-0.058947794626185504,-0.5057543208659901,0.4540594223031855,0.7497393929225868,-0.7871446054846657,-0.27409148643791265,-0.09510853074892006,0.2998450925592735,0.6818813128422423,0.5893133819728525,0.7933352705077177
M90516,0.20326993883152053,0.8244896234617591,-0.3588348541158545,0.1646374687371741,1.455553430772357,0.024727541591852642,-0.6907199151726678,0.6031792119068622,0.0779337315809812,0.20512370279078182,1.138549929156822,0.07402651488379525,1.1360859712677454,-1.21997090028677,-0.18202697480872132,0.043813433237801735,0.19558944406150697,-0.012019526172589362,-0.12232453644497239,0.3381898433325993
M91220,0.8046461054374143,-1.0219265282736945,0.026405185984890278,-0.5632843120961365,1.4609898097430982,-0.3207819094556162,0.31649953057943364,0.41024359730089216,-0.4376104429351586,0.6595194977957204,-0.032087535412949966,0.25614830248499987,0.25238371417105826,-0.8740868439728504,-0.4890227093147787,-0.1414245644994823,0.5797177985804919,0.16754381403408836,0.9439609590769515,0.3615686499746341
M91503,-0.05231069255627058,0.1814872655753928,0.5890566962601704,0.7516204686460508,1.2478561325952995,-0.47872681314621135,0.4293410274527002,0.47923625811832865,-0.3633805377369018,0.7206929045736347,0.2914923725673012,-0.05427484009807779,0.11341004179949148,-0.5408515114244283,0.3970597945275081,0.29387442996479635,0.19290980569469812,-0.7881067839332526,0.6629924313271076,-0.00842158242458449
M925,0.1988833126402525,-0.31092787145938733,0.48927067742616515,-0.6234182269560482,0.4173639480700106,-0.7112714339183684,0.19083714606581847,-0.3729203162335425,0.07837478426863233,0.9988517764548369,-0.13408506612937715,0.05735330344224286,0.961413295675813,-0.4136401926223487,-0.5060478915139731,-0.2817592011115182,0.5722907861158104,0.1516708251725234,0.5021878660487488,0.3401078097710696
M96753,0.7183207450558408,-0.5654835298911164,-0.31954451410924894,-0.07976783204106656,0.9217486816185598,-0.9686443205978926,0.5314835914681085,0.3997084617068707,-0.04704766475442579,0.730495939717114,1.3199023078880963,0.5090486181993663,0.6802432675353149,-0.28523869976126026,0.03441066984457187,-0.5013759492046335,0.2098962331578639,0.28772060243992675,0.9751389581900993,0.03855340166110757
M96843,-0.8022904636440064,-0.691995166009509,0.12504459898494202,-0.12280586167235155,0.38182534618302255,-0.0161116436981234,-0.1645197973949924,-0.10780306174048448,-0.6051561056566596,0.9992856388620963,-0.5863923450453739,-0.2056343666768893,0.3766603413148932,-1.0145308014352057,-1.527440898477383,-0.513315213019675,-1.0741826603258011,0.059278509787685535,1.0539445956531521,0.41953963417863116
M97003,-0.3971828067287291,-0.009787838812529759,-0.039592253142331,-0.8690828760647031,0.20985219671958555,-0.8738687888730499,0.3291872435681553,0.9880506667223472,-0.46215560461438654,-1.0257398052352749,-0.15012693254774145,0.9415533338410972,1.564365743278803,0.7588555859907726,-1.3255620769649676,-0.4630324389448722,0.852986751803509,-1.1486849559548957,-0.09919120609640882,0.1879515934862312
M97053,-1.6033649944509276,-1.260277355818533,-0.38592407322087724,0.7868081867738552,0.28961392317086737,-0.6643681369600384,-0.011513838529359388,-0.98140633819603,-1.4546642361622153,0.6414754907607004,0.8254276936045808,0.34452667352932775,0.2931671436030611,0.842322131084078,-0.7532034857809948,-0.8525437213972871,-0.8519989448197349,-0.2317797597029574,-0.43190019600738977,-0.5724092134318572
M97343,0.7782595309939822,-0.7299618485190484,1.3312869011533568,-0.36969062232477407,-0.263114171679576,-0.305622197503751,1.0140238490092819,-0.522991845058287,-0.751489654857934,0.4312027957290855,-0.335659515779177,0.8784369457700467,0.8243147690210215,0.004076955542811345,0.4645000441271978,0.16545722879578822,0.8797842748659213,0.7231124840936052,0.19950231700857318,1.2970610937390599
M97511,0.061725916911325174,-0.7130540105275143,-0.2205048568316022,-0.12145152391983513,1.0400505957738833,-0.19100160396217594,0.05659495891927001,-0.4984468181058203,-0.7921697326932535,0.15286510402368983,0.83524437242807,-0.5185346456514031,0.1730778366805717,-0.3262646061928016,0.6638465425286741,-0.20549679180569008,-0.12264806637985506,-0.42658688309648585,1.4041169238019213,0.2639867630883576
M97603,-0.29228795534452556,1.003945400602181,0.37658584706943127,-0.4029751817052233,0.5045669241061429,0.3434572504039218,-0.15011796481812073,1.329343189258052,-0.4685332169499078,0.31047763528213557,0.4177618969884715,-0.4585905218297401,0.6179351412962817,-0.05605922515924374,-0.6058332272033927,1.1763466836004701,-0.2731702644781424,-0.36863016392291414,0.31141641009983834,0.8150820793879701
N045,0.8406696090123946,0.18970800087616746,-0.15975454122401916,0.1685920816308325,1.164081643013583,0.09746053616002066,1.159865855713972,-0.04311993545304443,-2.581197846579097,-0.09598855494244596,1.294507657440271,0.45113251709847724,0.9561499181886728,0.3909029410569488,-0.5727456940556549,-0.5774255005114775,1.3741434424960246,-1.3514926211973743,-0.32739604212693163,1.242213443923212
N069,0.4769911607602163,-0.30935654028995374,0.6793633987815926,-0.5043056111886697,1.3208569814661584,0.2091152266499132,1.1341657515458314,0.3252638439213421,-0.39929399177925984,0.22089185384729493,-0.02588194705662593,-0.5341990700897183,0.3597963587590347,0.6720781306785053,0.40891799858326516,0.6718030776657571,0.18527329719620045,-0.6526360756190019,0.7643430983327926,-0.06344605363650718
N188,1.522360886950073,0.031011997640973784,0.5594106310681407,-0.6481200078592402,0.7955342857952894,0.33308773652444873,0.17717598940841991,0.28554381118615507,-0.8183706834800657,0.36463039273961995,0.5151419100070527,-0.023369383426440703,-0.3108770898890437,0.31895990454428647,-0.4168107115660607,0.05262610837323259,0.142998033146187,-0.26946274691943417,0.47585396283676956,1.4901240545478436
N250,0.5450364170463909,-0.0965657198717552,0.23774347376353785,-0.9488812763749652,1.413352354395365,-0.23430403409255843,0.16852246317821046,-0.6170900610024387,-0.4753060009480688,0.7940100109057964,-0.2378812828958623,-0.9304335628088415,0.6897399124420004,0.21732837018706627,-0.6147643658159513,-0.8500859210926344,-0.17866776393573652,-0.5679765155243918,0.7435250368755734,-0.7340010691853309
N361,0.7699156467147251,0.5288055415070194,-0.1764990359853928,-0.466305957174921,0.5401585264966867,-0.38292844400690734,0.48944691038003874,0.025902937093201878,-0.25836210975674445,-0.04583176674282213,0.6292717948099489,-0.43270608983726505,0.15642322644776088,-0.24755613644135113,-0.9536470797906276,-0.1914000836361544,0.09100418238709745,-0.10868489274924886,0.14948374123052732,1.248871272406487
N3981,-0.25464367110597197,-0.8231487177413543,0.4216215112677793,0.7173696761459931,1.0955537296421158,-0.18214235057300987,0.6294944146184163,-0.21887566329312896,1.4567631025400813,0.7340459050300451,-0.980002396438468,0.007658080548548218,-0.2483117090524033,-0.2012725250626488,0.3991893557973611,1.0251887568030524,0.19900072894317108,0.20754828153243854,-0.26346290998797584,0.8584131357473583
N412,0.14170732426756072,-0.17753766180718092,-0.29060987671607763,-0.04635457384037067,0.6943820917365708,-1.0350267959644457,0.8580534979906774,0.6985385092320299,-0.001302728963672506,-0.27138201592132216,-0.35600765262920653,0.43234612653302257,1.1201434543534488,-0.3979765816714559,-0.3624430746816365,0.7743891471819019,0.347675334458562,0.42081683852969265,-0.5040057306148339,-0.43590561432922936
N432,0.7186575706619749,-0.32609444154646466,1.1961081649135696,-0.4127733285016773,0.4836553511117537,-0.758543001768109,1.4536666237607634,-0.23407988919383435,-1.3831307745474335,0.5774474300236648,0.4239413752933254,0.285398888621291,-0.1423784585609253,-0.6141948680567191,-0.7909397067051274,-0.4331389873165563,-0.10936288514076682,-1.2055207640173804,0.09103921824724122,-0.21119354565462087
N489,0.9362178017022188,0.23374345630020366,0.8961990724906415,-0.27716420679149983,1.0393812501609867,0.06745352161577745,0.6336469034884415,0.016187413195502518,0.7636078582673151,0.20097015450869526,-1.0186347291939195,-0.8156386490863515,0.5377583980596556,-0.6351400818533377,0.11641294097068952,0.8308301492066954,-0.34847259121868834,-0.5412768839971746,0.2087927154185488,0.7604322062182676
N512,0.8314642405043594,0.34171795182003584,1.2352046619620654,-0.14053236482494225,0.6511575082569555,-0.9162511452946542,0.3723416173743457,0.04095900532693503,-0.5271292654105969,-0.010037638496937493,-0.11119060581805021,-0.5417577765837331,0.5070717318097299,0.26255313662965984,-0.9714774626828201,0.1855540545472474,0.13852957684689352,-0.31497034960184617,0.011333696974816558,0.8551166639670984
N72,-0.05070589402619066,-0.2427820363034192,0.14114098400481404,0.13572346175474936,0.4159029252571186,-1.2139708850690194,0.6883041782744033,0.12891600406820392,0.03145046544909673,0.4794815418104621,-0.1340248243729541,0.0600036503081772,0.44705243315110726,0.054731561680174776,0.2365391374358086,-0.5778664025502367,-0.02291538987206035,0.48938217782662885,0.5017402592972479,0.763233155605896
N735,-0.783140221992104,-0.38360585967845573,0.025203848275119376,-0.08624091860114186,1.567800364934294,-0.34093733897943757,0.7625476409789815,0.11378392834757445,-0.13517627900178386,-0.043595845974523456,0.17740343467126127,-0.6324023222499137,0.11269101209070731,0.5256548619529346,-0.6599313141292109,-0.7275289252247745,0.23040112533650062,-0.6340895346412624,0.31061536873589624,-0.03143931627728053
N751,-0.04829751109337946,-0.5164983331045349,-0.10700712996935996,-1.271307301349926,1.2334400049503051,-0.717444952821584,0.46358733458947987,0.1966374238604333,-0.6997269024613124,0.43164820768832324,-0.7206234334622731,-0.07911143066254434,0.0714190698558641,-0.12781359157861463,-0.294056325718628,-0.567017148364808,0.9212823397326119,-0.5176646787078926,0.7726275126354104,0.3394815722959629
N899,0.31944545609524955,-0.39779954020299474,0.3170880346176535,-1.4214663797782912,0.4422728954964587,-0.4140301996750355,0.9820977503964785,0.31717447414073247,0.13326869928561133,0.6078888865063123,0.3429371023883263,0.9954093514460931,0.9632460152452414,0.6206095108576055,-0.3468638307711001,0.32783619497037514,-0.15013608895666816,-0.4119565742904547,0.47365572366582054,0.5882248593054846
N940,0.7352298275230551,-0.11787561512519679,-0.2905709669079209,-0.17415464261303615,1.3546490298712688,-0.4912219423474419,0.5540572370789788,-0.16732404959284092,-0.686048540282887,0.09706373802198193,-0.18732340364651237,-0.32811167676189407,-0.19704316823164642,-0.1915987515885682,-0.2131078402490767,-0.44542614128778263,-0.316745018357531,-0.8501736850369515,1.3580290097155752,0.713310119037978
O039C,-0.15429379088515308,-0.3374139732046261,0.06723083346632772,0.07415717084528001,0.8568568412432579,-0.8879129735051724,1.5432622264143703,0.32741321668245127,-0.4751983178734439,-0.055734219813284316,-0.483800968595998,-0.122717137024803,0.523046005048355,0.01976630503679877,-0.13187473315329076,0.3250620660250302,0.17142748192880355,-0.23860976599581066,-0.1789868660266551,0.9185465976597054
O234,-0.7924862845035993,-1.319894301259254,0.3534764601143895,0.29735401735263367,0.9153517741101821,-0.6977085043910154,0.7444849180723101,-1.0371029355454993,-0.370080809975602,-0.022613189864394395,0.08852422646433765,-0.354013115200981,1.4983675062265593,-0.746982644400473,0.12977729438242272,0.6325533738740254,-0.4530029076032467,-1.3763050583541787,-1.4073879818411708,0.7849661934274819
O266,-0.9480598274062224,0.03839675961469513,-0.46847498225218887,-0.8460726632219286,1.0252753864433872,-0.6896809471894199,-0.16809021774083033,-0.5614569286226709,-0.6699428595296075,0.4759205961864799,1.3058738928788989,-0.6500037965768801,0.18497772953249755,-0.6798397106101941,-0.13346972107599395,0.3819955262960346,-1.4484780311800605,-0.27937545621127957,0.07153742399415973,-0.048015711164446265
O603,0.17282086886514392,-0.32384724477709576,0.5926129650191077,-0.5436580671375555,0.799267457722179,-1.1533053801541453,0.7871519885173928,0.8664453196704474,0.11108212098951481,0.6640655124032632,0.5912397757307796,0.41427093482035326,0.8319692741491469,-0.23207647037855827,0.280916407277812,-0.010318001632930493,-0.015130862989571687,-0.10819596778251102,0.25891589881881355,0.4849883340598987
O80,0.40127680206513083,-0.6062921396708834,0.2956100115651235,-0.38026846508565454,0.9477721042182066,-0.7279397512827215,0.2835926657121711,0.1921806553120617,-0.9338550645709123,0.4680044617138304,0.6551333904140698,0.32765648769993233,0.5957577662477989,0.013667459199958126,-0.3363434979939549,0.18464693112847402,0.3103082647829199,0.5927097252240738,0.3053380086144797,0.975408298877838
O860,-0.6714841438017578,-0.49294796350243664,-0.352988291789808,-0.17294208612372025,1.037205216626583,-1.2269487951787739,0.4539857648019087,0.3093396897487743,-0.361221450260471,-1.1809929038387579,-0.8751265385578679,-0.09187877948925646,0.34047792749323114,0.9291601637431167,0.6976437421314173,0.0682880855465241,0.1324103907243859,-0.4202669250435076,0.3777973828692874,1.8626038726729284
O882,-0.3099554006338551,-0.2710484034878903,0.3990548168817466,0.1269722668281805,0.9006987230619903,-0.16289308688433182,-0.09429871257158742,0.2778159730269584,-0.6844472604364044,0.236966994153278,-0.186209268749151,0.5067648567478933,1.4608407971598485,-0.11992963197870585,-0.7103482883568726,0.6145629869467928,1.0311279597817293,-0.4552000719326442,0.5603701722139279,0.7562787286004155
O904,-0.7223761607819518,-0.9950358851527126,0.755882404722871,-0.0033206031384851713,1.3893305759314583,-0.9176316284812834,0.5445170208284223,0.6001514823745883,-0.5921417418831041,-0.2831255073856757,0.7431201203736796,-0.6092120668046171,0.4984884922534035,0.21445532815847074,-1.0161482380237856,-0.41764898834313074,0.43119237924505793,-0.3361747706700934,-0.633923579299547,1.1633942794855052
O990,-0.029050092095414953,0.12050424656193892,0.6505003143419531,-0.761567825866462,1.0873734405171527,-0.5243293738033682,0.157395818010072,0.25743831592649546,-0.5818445897770328,0.8187604649313827,-0.020999855399751605,0.25169889340873736,0.5514852129595478,-0.26622964309485714,-0.8205455605433285,-0.18130918409012045,0.03165389206236617,-0.5783181865163222,0.9661915414298761,-0.26366075204018213
P928,0.8504129107065539,-1.1220125207056935,0.7127929259520493,-0.09037388617577213,0.38450277187562815,-0.9414382757623954,0.2362600674952546,-0.2569939886008667,0.30960974752086545,0.22114560678909742,0.8653226424305346,0.737405728670517,0.2615551378345223,-1.6902980003498873,-0.9979200960203187,0.03812376918250068,-0.16968119165407208,0.03931164664733499,-0.43168073742722324,-0.1336095202411839
Q2113,0.2121931046147527,0.3435928561907994,0.09615368090215345,0.4558148339075744,0.8073916472759624,-0.9934081701585072,-0.0929886154686782,0.8353345618089154,-0.6721976703472472,0.0916915982368316,-0.19674834857100607,0.9287796767385533,1.1818696443039718,-0.7692312557527681,-0.45953850139204705,-0.6297230388915458,0.38863522083332785,0.2736388595310251,0.8055686027157755,0.4700809523668369
Q218,0.3058234590268692,0.08645928877833561,0.23815266311758573,0.10424967433388599,1.1589282892813748,0.11089694653721438,-0.2901306386273825,-0.052752750796375814,-0.770864071878085,0.41806805767152677,0.511401363521365,1.2295964088518774,0.21134062680630122,-0.2624677768824454,-0.9659123175644518,-0.8512149519278513,-0.8002363810863662,0.12232171722365838,0.08360319792933965,0.6831407888992103
Q225,-0.763619155039132,-1.0962382069594367,1.5230273721797478,-0.38234981725706296,0.6289665813156652,0.42598977469362115,-0.4475180259868035,0.9317237395358697,-0.22869758458985362,-0.6234539528541709,-0.5116515604465979,0.03523349526828924,-0.0924891039816843,-0.48564243130093054,-0.21412796338247853,-0.2567494938085412,0.1796054471635666,-0.3177276643660578,-0.049324845306149334,0.6673821616216895
Q251,-0.25976859748797987,-0.40649880257157833,0.12994691956645835,-0.21402177996365754,0.7188890534173709,-0.31175240083406386,1.0089466890456296,0.9540881541650925,-0.013751410864176528,0.0741724301893165,-0.5502834955739462,0.7043532612431971,0.7252654754683474,-0.4201075111772819,0.593740616376421,-0.3570425894896326,-0.12064573542170576,-0.006247284521456023,0.805549011379139,0.07327342568617286
Q315,0.6307340352187417,0.8750298080404666,1.0801498745392166,0.5217579448211974,1.1799401927705566,-0.16009651445796824,-0.672767025424273,1.121745838625924,-0.6710206483401602,-0.48870424747339647,0.22979783374127896,-0.23206505675886444,0.6689230848920917,-1.370786766771776,-0.9748417478234498,0.9914981679997905,-1.110064045700763,0.5647945423637841,0.5762968250306961,0.08937268487874578
Q3989,0.35716613984158446,0.0625143780831281,-0.11419427039129829,-0.39782750044511284,0.9878050351632254,-0.7382091417565102,0.17906455871486132,0.32774880314204174,-0.005503994722740879,2.022716845732213,0.005795781441070125,1.2949697562844802,-0.21522736917147178,-0.33644629392629416,-0.4261985099282251,-0.5949471040682128,0.521313642515169,-1.0264774272330452,0.6213202351597795,-0.10050850152692678
Q439,0.9722674616530176,0.008284999730528542,-0.6531020384601225,0.595239031868866,1.1867097069219317,-1.0085464919500506,0.5308845134841801,0.1988673234534417,-0.33401561576631367,0.506438086461416,-0.21210961969426456,0.6633197836635709,0.3892632133442794,0.0023745196804832863,-0.5038016742498403,0.23109649840991617,-0.1251234437088117,-0.07178882751087026,0.591026434500227,0.3806126345689098
Q446,-1.2809436967893444,-0.5523144545871215,0.5495758050658183,0.33599081301821954,1.2857077165258106,-0.8803114109763654,0.593223279808027,0.020134976088819756,-0.011778840131164078,0.8257659704270399,0.04064168844500583,-0.06359000233827211,-0.14389968868276323,0.3289901062205488,-0.5040809910030182,-0.22837870939543792,-0.2612697466108627,-0.6644093530809305,0.29563303427138815,-0.5273285995854875
Q5320,0.3787958240371807,0.5711413682602782,0.09570354763046085,-0.5764748560307693,1.001650951167047,-0.4320841391416286,0.313050321031229,1.0113084501368141,-0.17055044618318488,0.3695290069788334,0.6399124360757082,0.26751302792814147,0.5075855716815338,-0.7330612225559663,-0.2234968396248347,0.8432339808913446,-0.1607946097255665,0.24561736857225716,0.46201704622634515,0.22850685949252647
Q652,-0.8620537445883076,-1.0344608271936064,0.8302196439388729,-0.1689874959609607,0.9646085221361321,0.3063940673823227,-0.5957984650426774,-0.946172958909455,0.2639560369999915,0.9248428828355998,-0.4292911130160888,-0.3400496395657434,1.1151741035825264,-0.06836910677905066,-0.043915832416663775,-0.502679049866259,0.8049947431361183,0.04909971946989619,0.17026379870399758,0.7145114604586498
Q6589,-0.7373786506516525,-0.8664806138388841,-0.042216504781911524,-0.25474631851393953,0.6733585505515097,-0.014477434393300348,1.5621943403833405,0.8620399132340341,-0.7726600163915237,0.6798774127991006,0.046747043847680594,0.07003504324972781,-0.2608640515499042,-0.5846009062080302,-0.5612824510375645,-0.3711529617498365,-0.5686570740038437,0.30404428882105927,-0.10901258242137753,0.23061441018936651
Q8935,0.21081870705135936,1.175195874872614,0.5723107329883467,-0.3403365046093233,-0.1844044658712009,-1.5300592200928538,0.11865340203655811,0.4879003699947122,-1.8194028517853342,0.11145356320389564,0.04460676912100593,-0.4572342675756812,0.17927944174462165,-0.879876495903771,-0.08661477094686297,0.4429577039137573,-0.01206780638001409,0.692473259225484,-1.1331298626081914,0.3824266987348514
Q969,0.3344539640638068,0.1232927662570875,-0.05079396137924494,-0.15154518980031367,0.8144745131742814,-0.21027134579310477,-0.28289782689089926,-0.6243436616991738,-0.9958734044100404,0.023286374712350677,-0.7293626883087001,-0.14090286458685575,1.3009090026919912,-0.17202392447299525,-1.0488010809862673,0.0664204939627801,-0.06623428473540782,0.19573602442419294,0.9142700370672977,0.6519488037058832
R010,0.10115385184453085,-0.6583577756231581,0.14450993063737122,-1.072468872194956,1.050394283520382,0.19964333048979419,0.45179978770767887,0.298349181882702,0.00418797837482382,-0.2002514994324247,-0.10454991878085708,0.3030808120155037,0.10014524111670735,0.029651759368759988,0.31293986344896885,-0.774825790943088,-0.06770316822815427,-1.1109646754537263,1.1710154509220285,0.8551749682576752
R760,0.743775100280465,-0.3561503718707609,0.4793394519951932,-0.17716777506230846,0.8107332384206394,-1.2021986761044094,-0.07144194938570801,0.07491877987092127,-0.9712015568528515,0.4638367994424656,0.06366406727956461,1.0370641377573497,1.0186955574499181,-0.9378009441746121,-0.811048648467201,-0.1175376106207747,-0.6388895772416671,0.9453457585722185,0.6552992163854742,-0.020173068953964403
R826,-0.009216972974594121,0.5163183356653118,-0.005709272276958888,-0.9515807019260595,1.294125931465748,-0.3745410752883573,-0.5108651467410059,0.485835375109811,-0.344195223877271,0.5410391819051042,0.7276369063467973,-0.7500507863597634,-0.253075777685692,-0.3141925996208881,-0.8117427470896964,0.5538772242935461,-0.36228118771731255,0.3051636902695126,0.09977101380766723,0.6168410138127918
R867,0.5634769834485374,-0.652269674271349,0.30430199180593653,-0.3791529780340117,0.9767373992649933,-0.524872746398012,1.1639774529821667,0.84440744962272,-0.724667769254184,-0.4095251621596356,-0.4079487885597705,-0.3636449351750079,0.20795559035712968,0.8111589523732815,-1.3677644454656745,0.8029704658479729,-0.6202122503735563,0.23379302464419613,0.3758355950749928,-0.46551497307757284
S040,-0.14950810779412177,0.610538527593061,0.5084341118529853,-0.8951485709525919,1.0259016017804634,-0.19368347878690184,0.486877617991886,-0.02629850973795228,-0.5041579565292483,0.9917053505533773,0.8193754680263244,0.04843689454985656,0.3642133217103408,-0.4984351454891964,-0.8031610903653591,-0.6690671870352114,-0.4684894661518423,-0.8234422836946639,-0.5255137837970105,-0.18287950469752495
S0634,0.19372655443954132,0.40725083421819724,0.15202058804691837,-0.8845461031024155,1.3751983824392569,-0.6474687682623153,0.4848559131303047,0.8629021640255923,-0.3865751414462743,1.226820448466425,0.031966354237022244,0.5225256130155612,0.6637392370622666,-0.0264484072634016,0.1924343024511208,-0.37837115660273307,0.16078214373316813,-0.08692000758317073,0.729611616429414,0.21846652474791847
S132,0.5708515283240077,-0.6669596940116679,0.6688608354399159,-1.3508699344706905,1.2623109675296944,-0.2534060528487165,0.48246895984188815,0.4219992584362987,0.4327102269941865,0.5477291431437274,0.05840210277815311,-0.18904544602180992,0.5456477314683391,-0.6219262589511325,-0.03194807954226894,-0.26213682536089356,-0.24346559255095085,-0.08857049516539511,0.20236132547045227,0.5232868851724428
S179,0.23670553123340055,0.15935223087161388,-0.09243702766790124,0.08146039376966449,0.9940765076735548,-0.14127610484125314,0.5093999234064517,0.7530761100902162,-0.31076132464712775,0.2424522222540405,0.1811767660923026,-0.26075912993899597,0.43647220967169925,-0.8719529453220615,0.09417597151577078,0.3394582132734158,0.2156917415141397,0.2868845145689666,0.6650957097451904,0.9586531733622972
S2030,0.9067961412331407,0.24247821805018338,0.9887569220924431,-0.24721430223189658,1.3637728559230977,-0.14310199624019002,-0.35394606718689925,0.29408940944576945,0.18727062938450384,1.3253323884338575,0.35309503577047574,0.3236615996029783,-0.1787710053596468,-0.6954685001768296,-0.590504337578494,-0.47811177149123896,-0.11117831820003912,-0.39098425698467143,0.5732812514087601,1.0950518564551819
S232,0.49536043830767373,-0.5405561890570063,0.6858111184869597,-0.25049464666945015,1.1466658164852517,0.6351787056876214,1.2828042833820859,0.10581131095791153,-0.640252082554768,0.010330916316651825,-0.2525694827247748,-0.21385084777264232,1.0594916839281312,-0.7773764664821847,0.17725885752741102,-0.31743874645211123,0.050954420513722905,-0.3125816194986847,-0.003522441433290238,0.7932690493322992
S242,-0.5739348228850757,-0.6951915866908628,0.24693688857931984,0.7608288080094745,0.915961439975761,-0.1567308549410466,0.7093377803542431,1.4039936988720254,-0.3364523463457019,-0.6473960302576387,0.7007790041573685,0.1087397417251724,0.9374737493980079,0.579183160597442,0.09308105378246297,0.5838965483078118,-0.1676630352699674,0.19320471497580521,0.4453419466016428,0.6308104208729566
S259,0.4494879513861996,-0.03560680813755279,0.4194934217201539,-0.3333403584843296,1.3120368501307478,-0.46246212703958095,0.25964202235637307,0.054034761702930256,-0.30343211059102937,0.6476274382490713,0.005158391646373835,-0.37302308463615524,0.295079163431401,-0.47348417268726395,-0.466758115552826,-0.32343412355750945,-0.023832944476611932,0.13118387110832486,0.7571477788770722,-0.43479863126537
S274,-0.17913205640934718,-0.2750077995279837,0.8228904985217921,1.0611866930408265,0.6651024937124288,-0.22692267618365763,0.5652200319446532,0.11766742476789417,-0.9645968625491104,1.1072568763026371,-0.3103119950336839,0.33429507088779187,0.664744251336761,-1.4070574960900903,-0.12364027083613344,0.49876721247499944,0.341712072536904,-0.70373406348162,0.8495629790815179,-0.15049864326562362
S313,0.45045480815154615,0.006754665999677487,0.2093303422509913,-0.9377325260759812,1.0055631070164655,-0.5120262683567743,0.4746813819860602,-0.2383957770531342,-1.0045198611018733,0.03722996970327881,-0.4923507337130564,-0.19867721378968675,0.306518791784758,-0.029788537227943328,-0.12356401734487811,-0.743607728647736,-0.928488650311966,-0.5087915331434933,0.3222753211060228,0.7255086870003895
